the 0.5436239912613022 0.5208754966661615 0.11572135525584686 0.10590173204147094 0.10355524508763954 -0.2264861134262767 -0.1403108178284589 -0.5136790638556347 -0.5041358511895742 -0.12196142029095317 -0.2419480551725009 -0.013521058316916714 0.1366105884982573 0.5385080817800677 0.324827021594181 0.2731061455018437 -0.22648941324443098 0.3921631593802092 -0.5956903346125676 -0.22810621268373996 0.11127929913623277 0.08442406214325403 0.5809438392306915 0.32859190541496186 0.4160916200686973 -0.2739664731146133 -0.3722625451078446 0.39182075516492404 0.2390234335252816 -0.28458324450674344 1.7642298930393494 0.23189643637924937 0.17871860054553718 -0.37043532346062535 -0.16228371618111329 0.11770083611153206 -0.605038594357731 -0.1555199501439612 -0.3073615407637521 0.2225727778198717 -0.4282438633631358 0.018083488382078093 0.18550850969843916 0.39894417180633435 -0.30515814870940045 0.11621340564883569 0.5426047521720463 -0.394947183335859 -0.3342908363514674 -0.4759823307470829
cat 0.45281 -0.50108 -0.53714 -0.015697 0.22191 0.54602 -0.67301 -0.6891 0.63493 -0.19726 0.33685 0.7735 0.90094 0.38488 0.38367 0.2657 -0.08057 0.61089 -1.2894 -0.22313 -0.61578 0.21697 0.35614 0.44499 0.60885 -1.1633 -1.1579 0.36118 0.10466 -0.78325 1.4352 0.18629 -0.26112 0.83275 -0.23123 0.32481 0.14485 -0.44552 0.33497 -0.95946 -0.097479 0.48138 -0.43352 0.69455 0.91043 -0.28173 0.41637 -1.2609 0.71278 0.23782
saw -0.044907 -0.16708 0.12915 -0.46251 0.33331 -0.035958 -1.0326 0.24267 -0.43836 -0.18387 0.052967 -0.30143 -1.0807 -0.26395 0.50318 -0.072131 -0.12275 -0.2764 -1.0728 -0.36251 0.15066 0.29406 0.036011 -0.37669 0.23315 -1.3393 -0.59214 0.12873 0.31664 0.13666 2.774 0.35739 0.34827 -0.30413 -0.071559 0.0085105 0.05771 0.038432 0.0020367 -0.3365 -0.37277 0.053761 -0.3495 -0.37849 0.20494 -0.15411 -0.17209 -0.59163 0.27798 -0.47038
dog 0.11008 -0.38781 -0.57615 -0.27714 0.70521 0.53994 -1.0786 -0.40146 1.1504 -0.5678 0.0038977 0.52878 0.64561 0.47262 0.48549 -0.18407 0.1801 0.91397 -1.1979 -0.5778 -0.37985 0.33606 0.772 0.75555 0.45506 -1.7671 -1.0503 0.42566 0.41893 -0.68327 1.5673 0.27685 -0.61708 0.64638 -0.076996 0.37118 0.1308 -0.45137 0.25398 -0.74392 -0.086199 0.24068 -0.64819 0.83549 1.2502 -0.51379 0.04224 -0.88118 0.7158 0.38519
with 0.25616 0.43694 -0.11889 0.20345 0.41959 0.85863 -0.60344 -0.31835 -0.6718 0.003984 -0.075159 0.11043 -0.73534 0.27436 0.054015 -0.23828 -0.13767 0.011573 -0.46623 -0.55233 0.083317 0.55938 0.51903 -0.27065 -0.28211 -1.3918 0.17498 0.26586 0.061449 -0.273 3.9032 0.38169 -0.056009 -0.004425 0.24033 0.30675 -0.12638 0.33436 0.075485 -0.036218 0.13691 0.37762 -0.12159 -0.13808 0.19505 0.22793 -0.17304 -0.07573 -0.25868 -0.39339
apple 0.52042 -0.8314 0.49961 1.2893 0.1151 0.057521 -1.3753 -0.97313 0.18346 0.47672 -0.15112 0.35532 0.25912 -0.77857 0.52181 0.47695 -1.4251 0.858 0.59821 -1.0903 0.33574 -0.60891 0.41742 0.21569 -0.07417 -0.5822 -0.4502 0.17253 0.16448 -0.38413 2.3283 -0.66682 -0.58181 0.74389 0.095015 -0.47865 -0.84591 0.38704 0.23693 -1.5523 0.64802 -0.16521 -1.4719 -0.16224 0.79857 0.97391 0.40027 -0.21912 -0.30938 0.26581
this 0.53074 0.40117 -0.40785 0.15444 0.47782 0.20754 -0.26951 -0.34023 -0.10879 0.10563 -0.10289 0.10849 -0.49681 -0.25128 0.84025 0.38949 0.32284 -0.22797 -0.44342 -0.31649 -0.12406 -0.2817 0.19467 0.055513 0.56705 -1.7419 -0.91145 0.27036 0.41927 0.020279 4.0405 -0.24943 -0.20416 -0.62762 -0.054783 -0.26883 0.18444 0.18204 -0.23536 -0.16155 -0.27655 0.035506 -0.38211 -0.00075134 -0.24822 0.28164 0.12819 0.28762 0.1444 0.23611
is 0.6185 0.64254 -0.46552 0.3757 0.74838 0.53739 0.0022239 -0.60577 0.26408 0.11703 0.43722 0.20092 -0.057859 -0.34589 0.21664 0.58573 0.53919 0.6949 -0.15618 0.05583 -0.60515 -0.28997 -0.025594 0.55593 0.25356 -1.9612 -0.51381 0.69096 0.066246 -0.054224 3.7871 -0.77403 -0.12689 -0.51465 0.066705 -0.32933 0.13483 0.19049 0.13812 -0.21503 -0.016573 0.312 -0.33189 -0.026001 -0.38203 0.19403 -0.12466 -0.27557 0.30899 0.48497
a -0.55612425 -0.7545488749999999 -0.025588499999999986 0.16935615375 -0.06371325000000001 0.428996125 0.2911265625 -0.6565365625 0.11796685000000001 0.137313875 0.16084836249999998 -0.030692024999999984 0.48281012500000003 0.59316625 -0.23598822499999997 0.20050637500000001 0.1922716 0.5470080375 -0.11649133874999999 -1.209497375 0.246386 -0.1734662625 0.29757628750000004 -1.00715225 -0.16668212500000001 -0.3167421375 -0.585778125 0.8527520000000001 0.335687425 -1.0798043750000001 1.252689875 -0.5506196499999999 -0.58229525 0.8843491625 -0.211422920625 0.727990875 0.283195125 0.33292925 0.890395625 -0.285894625 0.1754135 0.11497332500000002 -0.198828125 0.1901535375 0.5751620000000001 -0.1814448895 0.5054293125 -0.218441475 -0.07119381250000001 -0.7138870300000001
test 0.13175 -0.25517 -0.067915 0.26193 -0.26155 0.23569 0.13077 -0.011801 1.7659 0.20781 0.26198 -0.16428 -0.84642 0.020094 0.070176 0.39778 0.15278 -0.20213 -1.6184 -0.54327 -0.17856 0.53894 0.49868 -0.10171 0.66265 -1.7051 0.057193 -0.32405 -0.66835 0.26654 2.842 0.26844 -0.59537 -0.5004 1.5199 0.039641 1.6659 0.99758 -0.5597 -0.70493 -0.0309 -0.28302 -0.13564 0.6429 0.41491 1.2362 0.76587 0.97798 0.58507 -0.30176
and 0.26818 0.14346 -0.27877 0.016257 0.11384 0.69923 -0.51332 -0.47368 -0.33075 -0.13834 0.2702 0.30938 -0.45012 -0.4127 -0.09932 0.038085 0.029749 0.10076 -0.25058 -0.51818 0.34558 0.44922 0.48791 -0.080866 -0.10121 -1.3777 -0.10866 -0.23201 0.012839 -0.46508 3.8463 0.31362 0.13643 -0.52244 0.3302 0.33707 -0.35601 0.32431 0.12041 0.3512 -0.069043 0.36885 0.25168 -0.24517 0.25381 0.1367 -0.31178 -0.6321 -0.25028 -0.38097
great -0.026567 1.3357 -1.028 -0.3729 0.52012 -0.12699 -0.35433 0.37824 -0.29716 0.093894 -0.034122 0.92961 -0.14023 -0.63299 0.020801 -0.21533 0.96923 0.47654 -1.0039 -0.24013 -0.36325 -0.004757 -0.5148 -0.4626 1.2447 -1.8316 -1.5581 -0.37465 0.53362 0.20883 3.2209 0.64549 0.37438 -0.17657 -0.024164 0.33786 -0.419 0.40081 -0.11449 0.051232 -0.15205 0.29855 -0.44052 0.11089 -0.24633 0.66251 -0.26949 -0.49658 -0.41618 -0.2549
it 0.61183 -0.22072 -0.10898 -0.052967 0.50804 0.34684 -0.33558 -0.19152 -0.035865 0.1051 0.07935 0.2449 -0.4373 -0.33344 0.57479 0.69052 0.29713 0.090669 -0.54992 -0.46176 0.10113 -0.02024 0.28479 0.043512 0.45735 -2.0466 -0.58084 0.61797 0.6518 -0.58263 4.0786 -0.2542 -0.14649 -0.34321 -0.25437 -0.44677 0.12657 0.28134 0.13331 -0.36974 0.050059 -0.10058 -0.017907 0.11142 -0.71798 0.491 -0.099974 -0.043688 -0.097922 0.16806
i 0.11891 0.15255 -0.082073 -0.74144 0.75917 -0.48328 -0.31009 0.51476 -0.98708 0.00061757 -0.15043 0.8377 -1.0797 -0.5146 1.3188 0.62007 0.13779 0.47108 -0.072874 -0.72675 -0.74116 0.75263 0.8818 0.29561 1.3548 -2.5701 -1.3523 0.4588 1.0068 -1.1856 3.4737 0.77898 -0.72929 0.25102 -0.26156 -0.34684 0.55841 0.75098 0.4983 -0.26823 -0.0027443 -0.018298 -0.28096 0.55318 0.037706 0.18555 -0.15025 -0.57512 -0.26671 0.92121
like 0.36808 0.20834 -0.22319 0.046283 0.20098 0.27515 -0.77127 -0.76804 -0.34861 0.5062 -0.24401 0.71775 -0.33348 0.37554 0.44756 0.36698 0.43533 0.4757 -0.056113 -0.93531 -0.27591 0.3161 0.22116 0.36304 0.10757 -1.7638 -1.2624 0.30284 0.56286 -1.0214 3.2353 0.48483 0.027953 0.036082 -0.078554 0.18761 -0.52573 0.0372 0.27579 -0.07736 -0.27955 0.79752 0.0016028 0.45479 0.88382 0.43893 -0.19263 -0.67236 -0.39709 0.25183
cats 0.43082 -0.85216 -0.55639 -0.6506 -0.10458 0.65967 -0.92107 -0.74284 0.3937 -0.038858 0.1905 0.41127 1.0185 -0.32416 0.4006 0.32467 0.73039 0.18565 -1.5907 0.043061 -0.69752 0.23117 0.82313 0.60309 0.36481 -0.28048 -0.87354 -0.32553 0.25028 -1.1113 1.2741 0.95438 0.13716 0.14219 0.23295 0.53823 0.35135 -0.56597 0.16353 -0.63071 -0.30528 -0.19734 0.29626 0.99037 1.0909 0.52191 -0.12515 -0.77694 0.69387 -0.10724
are 0.96193 0.012516 0.21733 -0.06539 0.26843 0.33586 -0.45112 -0.60547 -0.46845 -0.18412 0.060949 0.19597 0.22645 0.032802 0.42488 0.49678 0.65346 -0.0274 0.17809 -1.1979 -0.40634 -0.22659 1.1495 0.59342 -0.23759 -0.93254 -0.52502 0.05125 0.032248 -0.72774 4.2466 0.60592 0.33397 -0.85754 0.4895 0.21744 -0.13451 0.0094912 -0.54173 0.18857 -0.64506 0.012695 0.73452 1.0032 0.41874 0.16596 -0.71085 0.14032 -0.38468 -0.38712
but 0.35934 -0.2657 -0.046477 -0.2496 0.54676 0.25924 -0.64458 0.1736 -0.53056 0.13942 0.062324 0.18459 -0.75495 -0.19569 0.70799 0.44759 0.27031 -0.32885 -0.38891 -0.61606 -0.484 0.41703 0.34794 -0.19706 0.40734 -2.1488 -0.24284 0.33809 0.43993 -0.21616 3.7635 0.19002 -0.12503 -0.38228 0.12944 -0.18272 0.076803 0.51579 0.0072516 -0.29192 -0.27523 0.40593 -0.040394 0.28353 -0.024724 0.10563 -0.32879 0.10673 -0.11503 0.074678
also 0.352 0.25323 -0.097659 0.26108 0.12976 0.33684 -0.73076 -0.42641 -0.22795 -0.083619 0.52963 0.34644 -0.32824 -0.28667 0.24876 0.22053 0.019356 -0.015447 -0.18319 -0.29729 0.11739 -0.071214 0.41086 0.013912 -0.17424 -1.5839 -0.051961 -0.18115 -0.76375 -0.17817 3.749 -0.045559 0.10721 -0.51313 0.25279 -0.051714 0.31911 0.28 -0.19937 0.17819 0.018623 0.47641 -0.15655 -0.38287 0.26989 -0.011186 -0.7244 0.036514 -0.011489 -0.025882
dogs 0.66293 -0.96696 -0.14334 -0.75659 0.24905 0.22172 -0.94465 -0.38172 0.87649 -0.65629 0.04229 0.067667 1.0704 0.16809 0.27421 -0.025205 0.35508 0.67089 -1.5322 -0.75242 -0.42834 0.50044 1.0975 0.5283 0.20904 -1.0833 -0.73485 0.058385 0.7591 -1.0924 1.6125 0.69798 -0.39835 -0.21979 0.093946 0.76265 0.32523 -0.30231 0.13616 -0.187 -0.15235 -0.13567 0.45379 1.1245 1.6595 -0.43319 -0.17027 -0.68528 0.29151 0.046649
an 0.11820512282835825 0.4726624746204325 -0.0689610394257366 0.08622776146539066 0.23439602877042606 0.14954491230043104 -0.19756109008361983 -0.024995655885198247 0.057477261205402606 0.139043588839055 0.20348815032605413 -0.04754639070502871 -0.1147383106923361 0.2724744909764926 0.4144612175922087 0.3808597097500375 0.24877854429841914 -0.03184014301154918 -0.6361666500291961 -0.5239241238520044 0.1899752493339492 -0.16260940975410948 0.4638713885014728 0.002317799085852612 0.2567738462463921 -0.8124143487757061 -0.3682498248420379 0.39034964154863755 0.4332296718577639 -0.10570300986289073 2.418734877487453 0.042169246595054104 -0.18903604553592757 -0.38469358884290134 -0.1626802317178864 0.10624630768369804 -0.025683082055808517 0.516961769092252 0.19666061480394845 -0.2594700800645806 -0.03859680830214492 -0.050825328613700295 -0.18099682353414615 -0.022259826372427384 -0.03802643640473751 0.20685877435594427 0.3815475617261998 -0.421936444224479 -0.11259671008065346 -0.20530471991690355
ice -0.68163 1.1578 -0.47827 0.41421 -0.53186 0.63827 -0.90381 0.50795 0.057398 -0.29163 1.1411 -0.079702 0.19951 1.1925 0.52281 0.78633 0.78555 0.32624 -1.5504 -1.0191 0.35532 -0.38875 0.92789 0.24325 -0.43162 -0.54939 -0.52209 1.0721 0.99558 -0.38605 2.2673 0.41067 -0.08973 0.29741 -0.18678 0.44329 -0.42243 0.80558 1.1306 0.14038 -0.089723 0.1341 0.47948 -0.12774 0.024234 0.051782 0.44778 -0.47974 -0.62491 -0.90005
cube 0.47241 0.46435 0.32071 1.0647 1.2126 0.2072 0.77395 -1.3674 -0.16832 0.92468 0.057149 0.28733 -0.671 1.2769 0.42036 0.61325 0.5263 0.76964 -0.15031 -0.4753 0.272 -0.52089 0.65479 0.20171 -0.53058 0.73832 -0.17234 0.84026 0.079738 -0.56916 1.0265 -0.71037 -0.34289 0.5893 -0.19578 0.34948 -0.1744 0.3125 0.47466 -0.24945 0.13311 -0.19648 -1.2203 0.2476 0.24383 0.24405 0.93197 -0.86404 -0.26574 -0.47675
placed 0.16182 0.39924 0.42775 -0.14531 0.83518 0.020721 -0.46349 0.30137 0.29248 -0.93737 0.44494 -0.011988 -0.31261 0.27189 0.06972 -0.060401 -0.28993 -0.63614 -0.56426 -0.49103 -0.11758 -0.72859 0.093113 -0.0391 -0.58135 -1.2683 0.1464 0.27755 -0.25096 -0.3257 2.4478 -0.025963 -0.038207 -0.44952 0.023223 0.61308 0.88214 0.7151 -0.266 -0.48564 0.38357 -0.46202 0.2419 0.11538 -0.058141 -0.0057816 -0.13725 -0.64222 0.37848 -0.82415
in 0.33042 0.24995 -0.60874 0.10923 0.036372 0.151 -0.55083 -0.074239 -0.092307 -0.32821 0.09598 -0.82269 -0.36717 -0.67009 0.42909 0.016496 -0.23573 0.12864 -1.0953 0.43334 0.57067 -0.1036 0.20422 0.078308 -0.42795 -1.7984 -0.27865 0.11954 -0.12689 0.031744 3.8631 -0.17786 -0.082434 -0.62698 0.26497 -0.057185 -0.073521 0.46103 0.30862 0.12498 -0.48609 -0.0080272 0.031184 -0.36576 -0.42699 0.42164 -0.11666 -0.50703 -0.027273 -0.53285
sunlight 0.77247 1.1131 0.65527 -0.44354 -0.22293 -0.64686 0.50484 -0.11946 0.47545 1.4761 0.27168 -0.13288 1.2733 0.24052 -0.56804 1.0308 -0.15494 -0.54765 -0.64913 -1.3454 0.14741 0.16673 1.0046 -1.179 0.64983 0.33115 0.35917 1.3361 1.3345 0.25822 1.622 0.30738 -0.2482 -1.5228 -0.55095 0.11483 0.0090142 0.24989 0.48322 -0.18 0.32192 0.079962 -0.43218 0.087757 -0.041518 0.38016 0.63142 -1.3512 -0.10567 -0.42818
melts -0.41034 0.24286 -0.25275 -0.96733 -0.57205 1.1152 0.55026 0.56941 0.019188 0.21427 0.44313 -0.049318 0.84213 0.69009 -0.10702 1.3929 0.58727 -0.00018736 -0.59973 -0.33358 0.49928 -0.40421 1.3997 0.13612 0.73843 0.072746 -0.25412 1.6176 1.5949 0.40957 0.38714 0.02208 -0.43915 0.56259 -0.76294 -0.24159 -0.72194 0.8037 1.3014 -0.26038 0.055385 0.086553 -0.2825 -0.39085 -0.46142 0.9449 1.1793 -0.35969 -0.45268 -0.63514
quickly 0.56036 -1.1257 0.55507 -0.71007 0.059383 -0.29997 -0.78756 0.70269 -0.2864 -0.15299 0.36951 0.28308 -0.61024 0.0058911 0.22412 0.64999 -0.23358 -0.47678 -0.12418 -0.7531 0.26407 -0.049331 0.59658 -0.23219 0.55754 -1.5649 0.2196 0.26784 0.72161 -0.13073 3.0699 0.21293 -0.14069 -0.87782 -0.36846 0.11815 -0.27351 0.51589 -4.399e-06 -0.54707 -0.26419 -0.23358 -0.27178 -0.16913 0.074022 0.10568 0.085594 -0.5575 -0.27034 -0.2592
which 0.3925924739402987 0.11738969544519047 0.1228575268911606 -0.033566862415312225 0.19083734524511262 0.16826084760517243 -0.06383108100343794 -0.26309887062237913 -0.08606686553516874 -0.04926193393134002 0.0949098039126501 0.036601311539655644 0.17640027169196648 -0.046557208282088786 0.07774461110650449 0.36539151700045003 0.1934725315810297 0.023025643861409952 -0.418069800350354 -0.6573994862240524 0.2327529920073907 -0.20180191704931352 0.5058226620176728 -0.020777410969768692 0.17773615495670536 -0.9588181853084731 -0.23362789810445425 0.09174569858364962 0.43188806229316695 -0.1807991183546886 2.8767785298494433 -0.04775604085935068 -0.207315486431131 -0.5202830661148157 0.2246372193853633 0.2199906922043762 -0.17468818466970226 0.27445122910702396 0.1568517766473808 0.07129303922503294 -0.03566869962573908 -0.062247743364403536 0.22338861759024625 0.5205264235308713 0.09956576314314983 0.07109589227133098 0.3800867407143983 0.01880466930625242 -0.0018855209678419623 -0.4098366390028431
best -0.91572 0.60345 -0.31077 0.28433 0.5461 -0.0039229 -0.9464 -0.3021 0.07115 0.82385 -0.16949 0.41054 -0.48622 0.61483 0.70468 -0.60032 0.89382 0.11781 -0.77831 -0.52206 -0.10077 0.38392 0.27892 0.37202 0.49374 -1.1495 -1.1505 -0.72089 -0.03809 -0.45699 3.3425 0.5666 0.00088944 -0.2003 0.53662 0.28478 -0.083822 0.97535 -0.35985 -1.0818 -0.051555 0.30453 0.0047155 -0.25214 -0.35151 0.26135 0.19998 -0.056032 0.074988 0.76092
explains 0.1761 0.65514 -0.21824 -0.13516 1.0184 0.40022 -0.24326 -0.38647 0.046145 0.035105 0.023859 0.77398 -0.35478 -0.235 0.73612 0.26503 0.11611 -0.17054 0.35241 -0.15744 -0.19523 0.42168 0.026051 0.24071 1.4487 -0.87451 -0.80348 -0.01425 0.4454 -0.1883 1.3232 -0.59723 0.0036345 -0.72264 -0.30363 -0.1643 -0.25817 0.21307 0.29116 0.022766 0.25728 0.29484 -0.29467 -0.12784 0.26637 -0.057491 0.76627 -0.22836 0.13325 0.8205
event 0.029239 1.3932 -0.63257 1.4428 -0.2371 -0.16312 0.028908 0.47163 0.4698 -0.15165 -0.22802 -1.374 -0.56937 0.18 1.6237 -0.27864 0.47416 0.31183 -1.6133 -0.64953 0.47584 -0.24477 -0.3199 0.17125 0.41976 -0.98547 -0.81791 -0.47376 -0.40819 0.24948 2.7581 0.79498 -0.48018 -0.51766 -0.57829 -0.13674 0.79869 0.69494 -0.92537 -0.50717 -0.41065 -0.58304 -0.26909 0.19583 0.42346 -0.21672 0.08189 -0.32385 -0.33378 0.18497
sun -0.37233 1.668 0.65616 1.2843 -0.070946 -1.6153 -0.28654 -0.67317 -0.49887 0.10531 0.18092 0.40495 0.52388 0.2854 -0.25076 0.75149 -1.2153 0.053438 -1.0649 0.037125 -0.22833 0.30398 1.2688 -0.85494 0.4933 -0.92463 -0.1465 0.53333 0.20661 -0.05457 2.6193 -0.11424 -0.30039 -0.0018384 -0.7764 -0.58229 -0.41817 -0.040371 0.41883 -0.23931 0.2125 -0.17315 -0.31351 0.3604 0.79981 -0.17144 0.19295 -1.6196 0.34135 -0.17726
far 0.75138 -0.15736 0.47208 -0.39808 0.18646 -0.11205 -0.39927 -0.0030878 -0.11768 0.17457 -0.28558 -0.75653 -0.11924 -0.26523 0.45835 0.21689 0.56068 -0.11154 -0.62963 -0.36495 -0.42373 0.089858 0.28538 -0.04276 0.38846 -1.8075 -0.42596 0.44824 0.21389 0.028991 3.4978 0.23029 0.3997 -0.46777 0.088587 -0.61494 -0.35905 0.53317 -0.56891 -0.26047 -0.64743 0.29423 0.67012 0.22167 -0.50075 0.09279 -0.43656 0.23532 -0.26338 -0.16202
away 0.34176 -0.32715 0.66209 -0.71138 0.28488 -0.19242 -0.85185 0.56403 -0.13852 -0.06717 -0.42702 -0.20546 -0.70012 -0.13799 0.29457 0.1881 0.50458 -0.14432 -0.73977 -0.63253 0.06105 0.55907 0.45083 0.16689 0.55929 -1.924 0.48437 0.66656 0.89432 -1.0412 3.1784 1.0617 -0.15902 0.0067243 -0.35329 0.39728 -0.44211 0.41718 0.38365 -0.39747 -0.15511 0.21717 0.047058 0.3904 -0.20639 0.075575 0.09143 -1.0418 0.24466 -1.1117
makes 0.29263 0.3102 -0.12961 0.35858 0.59204 0.46941 -0.024792 -0.30659 0.20464 0.77374 -0.14436 0.42105 0.030358 0.01449 0.39918 0.38801 0.098906 0.39401 0.10773 -0.95803 0.041812 0.044068 -0.24858 0.0076151 0.3852 -1.6395 -0.68911 0.43243 0.93482 -0.33768 2.9611 0.15918 -0.19574 0.12766 0.21367 -0.2272 -0.21646 0.41707 -0.023072 -0.74263 0.28745 0.46162 0.18259 0.019844 0.18715 0.54868 0.24678 0.29536 -0.0064379 0.80203
heat -0.88978 0.75523 0.63366 0.13724 -0.40469 0.093929 0.73536 0.69426 0.0067522 0.46388 0.34339 -0.44193 0.63356 0.6711 0.3381 0.40679 0.25643 -0.062146 -1.5983 -1.5103 -0.090815 -0.03376 1.2169 -0.71628 0.16896 -0.54064 0.74724 0.39974 1.9429 0.77383 2.7132 0.56813 -0.48148 -0.86643 -0.20721 0.58037 0.15421 0.7841 1.3174 -0.29218 0.18737 0.30854 0.24008 0.23689 0.39401 1.3933 0.42115 -0.65369 -0.39792 0.05114
solid -0.42652 0.41595 0.34855 0.33248 0.84285 0.48664 -0.1745 -0.044189 -0.056578 0.79244 0.25977 -0.24926 -0.47272 0.95285 -0.73914 0.12058 0.7215 -0.081963 -0.17461 -1.043 -0.34449 -0.23219 0.3196 -1.0695 -0.15885 -0.34618 -0.10921 0.79003 0.77934 0.28834 3.1426 -0.224 0.42648 -0.35487 0.20205 0.16872 0.014364 1.2904 0.20501 -0.7918 -0.0071249 -0.65813 -0.4126 0.1716 0.014141 0.016748 -0.082506 0.54832 0.14738 0.15401
looks 0.095183 0.32646 -0.19186 -0.10105 1.1568 -0.19311 -0.40794 -0.48584 -0.23684 0.24728 -0.30281 -0.036447 -0.47224 0.57866 0.50614 0.59504 0.3141 0.24318 -0.041588 -0.70738 -0.87123 0.61184 -0.43217 0.12998 0.47518 -1.456 -0.86934 1.4552 0.69879 -0.14805 2.2945 0.14748 0.22031 -0.10001 0.068963 0.015639 -0.35505 0.7897 -0.26288 -1.6114 -0.1367 0.31915 0.066852 -0.187 0.24151 0.23615 0.43489 -0.35704 0.40181 0.57635
clear 0.60506 0.18191 0.16394 -0.17322 0.39003 0.14191 -0.18749 0.22792 -0.13433 -0.039739 -0.29248 -0.11435 -0.61228 -0.11084 -0.086806 0.43197 0.46269 -0.91279 0.0032686 -0.87722 -0.43656 0.4111 0.30053 -0.471 0.48141 -1.6452 -0.0087763 1.0281 0.61239 -0.057788 3.166 -0.069298 -0.67973 -0.75351 -0.038444 -0.42413 0.17885 0.28132 -0.38948 -0.27017 0.22063 -0.018678 0.18915 0.1661 -0.20282 0.10659 -0.30766 0.7015 0.42221 -0.35024
as 0.3566635093213703 0.2790324369224313 0.07900766763058571 0.10698747697225545 0.1174525805553258 0.21693934273518328 -0.3005057821345979 0.04119755019697353 0.0799536206638586 -0.03700552670902222 0.17118661090556617 -0.009765313805367404 -0.2015882716805469 0.46051876979918854 0.27175227390000994 0.3576862876654193 0.018708494846233145 0.08073861758529735 -0.5948661680876255 -0.733888007911968 0.09216684004609059 0.05282918746147817 0.23747057869153482 -0.015436999382615155 0.12235114676926309 -0.8769534052717377 -0.39053908222597655 0.6901632164069147 0.4795763506402995 -0.11125044881030134 2.2833160008029254 -0.03806966590128054 -0.12641517930739998 -0.1641611516505669 0.04369884820215043 0.021904216631347534 0.05644181319291128 0.06168130079675177 0.19249082053334057 -0.2087947821486379 -0.13843975736772005 0.059650106740456114 -0.04410066686031411 0.04240858351314468 -0.1268613153971269 -0.05504595403143398 0.26444342870761445 -0.2458305459800644 0.029646080943754954 -0.23600175747614655
airplane 1.2977 -0.29922 0.66154 -0.20133 -0.02502 0.28644 -1.0811 -0.13045 0.64917 -0.33634 0.53352 0.32792 -0.43206 1.4613 0.022957 -0.26019 -1.1061 1.077 -0.99877 -1.3468 0.39016 0.43799 -1.0403 -0.36612 0.39231 -1.3089 -0.82404 0.63095 1.2513 0.10211 1.2735 -0.0050163 -0.39469 0.36387 0.65099 -0.21433 0.52291 -0.079013 -0.14676 0.89248 -0.31447 0.090903 0.78216 -0.10842 -0.3186 0.16068 -0.20168 -0.095033 -0.010109 0.19048
climbs 0.37033 0.37391 0.93445 -0.73156 -0.67531 -0.084188 0.13521 -0.032167 0.17414 -0.039264 -0.77234 -0.62441 -0.45891 0.29266 -0.038397 -0.35431 0.37508 -0.42796 -0.80845 -0.80895 -0.068629 -0.36808 0.086109 0.27882 0.91096 0.012295 -0.32138 0.4732 -0.31586 0.59726 1.3074 -0.32776 0.69027 1.0398 1.0907 -0.51421 -0.51127 -0.079876 0.003661 -0.85678 -1.053 -0.089183 0.82088 -0.067218 -0.045231 -0.86868 1.9005 -0.85175 1.1291 -0.76853
sky 0.081092 0.94466 0.33658 0.42124 0.27977 -0.73385 -0.97879 -0.52544 0.13249 -0.2126 0.41312 0.19676 0.12114 0.87748 -0.16792 0.79765 -0.18026 0.23597 -1.9492 -0.84402 0.15311 1.0843 0.52439 -0.28308 0.17648 -0.37219 -0.68172 1.4701 0.48146 0.028964 1.9263 0.55726 0.092331 -0.2266 -0.41086 -0.23616 -0.12419 -1.0425 -0.22734 -0.58257 0.58536 0.20313 -0.2065 -0.41059 -0.39159 0.12677 0.10595 -0.52283 -0.0062389 -0.56913
pilot 0.71591 -0.1823 0.59495 -0.10324 -0.17107 0.28205 -0.89865 0.57488 0.69234 -0.79392 0.83707 0.56658 -0.23263 1.2802 0.078758 -0.47402 -0.76294 0.87332 -1.3297 -0.40187 -0.20272 0.82063 -0.29414 -0.17837 0.56437 -1.6316 -0.27048 -0.35347 0.11791 0.3656 1.8555 -0.37432 -0.46504 -0.13966 0.92002 0.13795 0.76497 -0.2693 -0.21149 -0.03237 -0.043753 0.29203 0.42256 -0.3509 -0.41912 -0.88538 0.1945 0.28401 -0.27501 1.1425
notices 0.078451 -0.25394 -0.15898 -0.50972 0.26238 -0.060191 -0.5819 0.80682 0.46556 -0.0084792 -0.4809 0.33557 0.8585 -0.48313 1.3858 -0.4601 -1.0442 -1.178 0.45654 -0.83997 0.5745 0.06485 -0.31721 0.14786 0.38105 -0.40438 -0.028573 0.25707 0.052086 -0.72236 1.1038 -0.098326 0.33029 -0.49992 -0.33927 0.31808 0.92181 -1.268 0.07032 -0.83232 0.4346 0.058589 -0.22201 0.37932 -0.10436 -0.64972 0.04077 0.50995 0.48276 0.1304
crystals 0.82991 0.64947 -0.21377 1.1767 0.18504 0.94989 0.95525 0.11679 -0.023653 1.0063 0.89728 0.043541 0.75368 0.50042 -0.31484 1.2081 0.54245 0.062785 -0.52123 -1.5692 0.26632 -0.70317 1.465 -0.55679 -1.1241 0.74926 -0.74397 1.2325 0.57476 -0.71776 0.82172 -0.54069 0.079834 -0.66282 -0.05488 -0.15839 -0.4167 0.81946 0.76572 -0.049646 0.23685 -0.09175 -0.17351 0.57679 0.20636 -0.19403 0.27426 -0.68485 -0.93847 -0.94759
forming 0.8697 0.30897 -0.10425 0.056467 0.038388 0.82014 0.20789 0.12041 -0.20785 -0.31094 0.16971 -0.19181 -0.23219 0.92844 -1.2493 0.47508 0.76825 -0.22019 0.15835 -0.44334 0.27249 -0.53089 0.62077 0.18509 -0.72457 -0.35106 0.20222 0.44323 -0.1278 0.15313 2.7603 -0.29986 -0.44445 -0.61316 -0.39205 -0.059172 -0.53656 -0.26023 -0.048537 -0.018466 -0.45135 -0.58613 -0.50878 -0.042569 -0.13705 -0.13094 0.077191 -0.49191 -0.29741 -0.73609
on 0.30045 0.25006 -0.16692 0.1923 0.026921 -0.079486 -0.91383 -0.1974 -0.053413 -0.40846 -0.26844 -0.28212 -0.5 0.1221 0.3903 0.17797 -0.4429 -0.40478 -0.9505 -0.16897 0.77793 0.33525 0.3346 -0.1754 -0.12017 -1.7861 0.29241 0.55933 0.029982 -0.32417 3.9297 0.1088 -0.57335 -0.17842 0.0041748 -0.16309 0.45077 -0.16123 -0.17311 -0.087889 -0.089032 0.062001 -0.19946 -0.38863 -0.18232 0.060751 0.098603 -0.07131 0.23052 -0.51939
windshield 0.41891 -0.43604 1.2433 -0.04427 -0.55565 0.49307 0.38515 -0.10674 0.084216 -0.33611 -0.38894 -0.22283 -1.067 0.77907 -0.65408 0.28937 -1.0535 0.67486 0.51494 -1.9359 -0.58029 0.7598 -0.53402 -0.36696 0.52129 -0.040525 -0.17637 2.1225 1.0492 0.30672 0.95036 -0.16977 0.033312 0.66124 -0.013381 1.2345 0.68832 -0.27647 0.67441 -0.07843 0.37886 0.62992 -0.93105 0.32531 -0.33319 -0.16088 0.32206 -0.64649 1.0219 -1.0869
happens 0.40825 0.13589 -0.09204 0.077916 0.80876 -0.11682 0.17651 0.57259 -0.034809 0.18086 -0.13495 0.23056 -0.32223 0.19001 1.3714 0.89084 0.53573 0.20547 -0.11459 -0.43327 -0.10507 0.059712 0.21579 0.75578 1.1642 -1.402 -0.80244 0.29944 1.2265 -0.37954 2.1982 0.45418 -0.34887 -0.69931 -0.3326 -0.28976 -0.059243 -0.039974 0.4243 -0.27954 -0.72751 0.1019 -0.246 0.48189 -0.11966 0.20752 0.50721 -0.008143 0.016891 0.9726
because 0.52905 -0.30145 0.056191 -0.17905 0.15667 0.32943 -0.45908 0.37409 -0.072841 0.26107 0.36335 0.2312 -0.38076 -0.35675 1.0069 0.83946 0.074725 -0.13565 -0.10166 -0.70857 -0.38247 0.0081454 0.26605 -0.014551 0.16629 -2.2449 -0.45399 0.32594 0.82888 -0.098525 3.7015 0.28394 -0.078514 -0.74285 0.071688 -0.24046 0.15305 0.16139 0.034371 -0.30625 -0.66542 0.15977 0.17563 0.75779 -0.012878 -0.080298 -0.49508 0.067963 -0.10931 0.17161
blizzards 0.5453866666666667 0.25484 0.09106833333333335 -0.3417693333333333 -0.016841333333333344 -0.08209333333333335 0.08743999999999999 -0.15299749999999998 -0.170344 0.052904999999999994 0.14427733333333334 -0.3498316666666667 0.45253333333333334 -0.414554 0.31161 0.5371958333333333 0.03939466666666667 0.08035333333333332 -0.8033616666666666 -0.8331435 -0.006473333333333331 -0.052538999999999995 0.5236695 0.045836166666666664 0.25264500000000006 -0.8751886666666665 0.058670000000000014 0.18546383333333333 0.24287499999999998 0.31212116666666667 3.3294666666666672 0.2341181666666667 0.41008749999999994 -0.5738583333333332 0.43096366666666663 -0.3114366666666667 -0.12073333333333333 0.09259114999999998 -0.04305366666666667 0.06963083333333334 -0.5139791666666668 0.09929733333333332 0.6140813333333333 0.6248566666666668 0.17315450000000002 -0.10134566666666667 0.4270583333333334 -0.057964999999999996 -0.36508616666666666 -0.04193933333333333
occur 1.4648 0.17138 -0.29228 0.50241 -0.75479 0.89286 0.70472 0.5914 0.096422 -0.1861 0.34834 -0.35852 0.63292 -0.39126 1.0607 0.94402 0.012238 -0.61475 -0.69655 -0.58313 -0.40651 -0.82065 1.2947 0.45759 0.66128 -0.030712 -0.23949 0.1062 0.76725 0.3792 2.9964 0.092493 0.13052 -1.0462 0.16807 -0.25971 0.20846 -0.53045 -0.090122 0.6869 -1.3951 -0.029626 0.32358 0.44098 0.23107 0.22505 0.69939 0.15022 -0.36907 -0.083902
more 0.87943 -0.11176 0.4338 -0.42919 0.41989 0.2183 -0.3674 -0.60889 -0.41072 0.4899 -0.4006 -0.50159 0.24187 -0.1564 0.67703 -0.021355 0.33676 0.35209 -0.24232 -1.0745 -0.13775 0.29949 0.44603 -0.14464 0.16625 -1.3699 -0.38233 -0.011387 0.38127 0.038097 4.3657 0.44172 0.34043 -0.35538 0.30073 -0.09223 -0.33221 0.37709 -0.29665 -0.30311 -0.49652 0.34285 0.77089 0.60848 0.15698 0.029356 -0.42687 0.37183 -0.71368 0.30175
often 0.48292 -0.10589 -0.48755 -0.72499 -0.033428 0.64621 -0.28778 -0.028235 -0.67209 0.27879 -0.085806 0.39258 0.37097 -0.008954 0.27041 0.12437 0.04556 -0.11547 0.1824 -1.0934 -0.26857 0.12346 0.68076 0.60554 0.32689 -1.4725 -0.71837 0.33633 0.55901 -0.12365 3.6349 -0.040454 0.49109 -0.99409 0.049392 0.50667 -0.27718 0.17365 -0.74709 0.10036 -0.13906 0.47679 0.073626 1.0399 0.56961 -0.37777 -0.17187 -0.1995 -0.25104 -0.17212
at 0.27724 0.88469 -0.26247 0.084104 0.40813 -1.1697 -0.68522 0.1427 -0.57345 -0.58575 -0.50834 -0.86411 -0.52596 -0.56379 0.32862 0.43393 -0.21248 0.49365 -1.8137 -0.035741 1.3227 0.80865 0.012217 -0.087017 -0.16813 -1.5935 0.47034 0.26097 -0.41666 -0.38526 3.4413 0.34383 -0.035895 -0.5678 0.18377 -0.48647 0.42646 0.4408 1.0931 0.063915 -0.064305 -0.29231 0.086502 0.35245 0.17891 0.25941 0.37069 -0.51611 0.023163 0.05779
higher -0.64024 0.22079 0.79316 -0.71459 0.59939 -0.21182 0.24904 -0.63085 0.033044 0.50756 0.65401 -0.49695 0.6463 -0.72972 -0.11375 0.80608 -0.33519 -0.39879 -0.6108 -0.99099 0.78769 -0.66411 0.10332 -0.473 -0.23257 -1.178 0.21467 -0.16859 -0.14192 0.90384 3.9415 0.74366 1.0567 -0.21703 0.75132 -1.1666 -0.44778 0.092494 0.58773 -0.44638 -0.84593 -0.07333 0.68969 0.48407 -0.019144 -0.49032 0.58591 0.39169 0.48491 0.042346
altitudes 0.80817 0.46983 0.36175 -0.76836 -0.74024 -0.86841 0.91128 -0.38411 0.50473 -0.18697 0.85806 -0.2704 1.3491 -0.6372 -0.35335 0.93613 0.38948 0.76539 -1.6392 -1.2211 -1.3364 -0.062074 0.60499 -0.083456 0.76215 0.39348 1.0072 0.58926 0.3083 1.0605 1.597 -0.17654 0.47768 -0.26265 1.1325 -0.37028 -0.30215 0.0019629 -0.80529 0.3161 -0.14296 0.17141 1.7402 0.82326 -0.078499 -0.2538 1.5051 -0.54592 -1.3648 -0.3975
friction 0.4016555852086364 0.5674881474606616 -0.14857876994871952 0.13689570264054418 0.007534271903931619 0.4912045567635018 -0.1288355380138208 -0.09374719211144833 0.07613516658370059 0.29312865269831134 0.3996024505811655 0.015631060159468302 0.020578212970160874 0.4990863907113984 0.06176129750891564 0.4426376924635942 0.2990279627030775 0.2101721157419955 -0.4722280499470307 -0.626378427011132 0.055551828617874756 0.0912608739437246 0.49816363670401226 -0.10837619206242248 0.10583855162359103 -0.8498837977472664 -0.11393588712868091 0.4703607910693909 0.6774418035501646 0.09399671972176381 2.7966554612697037 0.33154605709191876 -0.15542707507465786 -0.5011826105045982 -0.24371578907329355 0.15194055146717056 -0.34304652559474585 0.3392795620107244 0.3052976861829617 -0.04683235660251718 -0.1610415185555356 -0.10523696426046493 0.10509788025367761 0.13279783460870628 0.32714357617519757 0.1880584573462698 0.12614521206000018 -0.13179719464546968 -0.20328747871012448 -0.2159538330395769
atmosphere 0.48002 1.0346 -0.66544 -0.051407 0.25726 -0.71347 0.68868 0.063628 -0.50538 1.2226 0.33095 -0.49159 0.26824 1.0291 0.0001132 0.8326 0.79576 0.47859 -0.79932 -0.93132 0.2959 0.90575 0.52605 -0.3416 0.44162 -0.23537 0.065711 1.353 1.3197 1.3481 2.4742 0.18978 -0.36377 -1.6919 -0.66375 -0.23994 -0.54664 0.067938 -0.06854 0.034667 -0.48815 -0.66839 0.065035 0.33452 0.13746 0.28518 0.11428 -0.24181 -0.24626 -0.048408
causes 1.1767 0.52921 -0.0018451 -0.18626 -0.33529 1.9573 0.80137 0.13252 0.90865 0.34449 0.38088 -0.041777 0.28368 -0.14265 0.15832 -0.033847 -0.15121 -0.32789 -0.23695 -0.38719 -0.66246 -0.49317 0.54283 -0.10977 0.52 -1.1008 -0.42176 -0.16962 0.70948 0.87396 2.614 0.44663 0.29005 -1.1889 -0.95927 -0.019366 -0.11879 -0.47572 0.75265 0.33156 -0.36835 0.065927 -0.33203 0.62582 1.0227 0.16252 -0.06403 -0.07421 0.24272 0.102
to 0.35868741480835237 0.1196399022301877 0.06927435810020349 -0.08068768952792667 0.23923009625237526 -0.08131085496644351 -0.5411744366503649 -0.24425419792371228 0.1737591958378869 -0.054093474578002475 -0.035007461256553817 0.14504917371347303 0.21836101731029578 0.3192769465101556 0.28930031169308595 0.2165883578359897 -0.0645873820563832 0.005558390345001444 -0.4514648911131948 -0.5860256495567836 0.34784017649322957 -0.1195296770808334 0.411712114279368 -0.0030887484459821823 0.1012675961650227 -0.9603409355256731 0.07611800850774673 0.5094961195604613 0.6458914116286095 -0.31918060570680895 2.7106305165661944 0.286469377249466 -0.0056884648568476335 0.055665773423579895 -0.11935875663191979 0.23697099637667465 -0.3041189190059581 0.1729707189919777 0.2550490850153378 0.03705950331934657 -0.09470735511647724 0.13155143352944199 0.24799322175957914 0.28694561905793337 -0.020541553192434652 0.0937775170644741 0.1478207660830477 -0.267610234712728 0.02609229333971445 -0.3893298597257932
develop 1.1475 0.17723 0.19015 0.32356 -0.51837 0.55499 -0.19879 -0.49762 0.66364 0.5909 0.86272 0.44877 0.22857 0.10304 -0.87668 0.95663 0.36236 0.812 0.64478 -0.1477 0.11169 0.20213 0.17404 -0.24893 0.41506 -1.0105 0.2098 -0.77491 0.42907 -0.29445 3.38 0.70533 -0.65243 -1.0044 0.072378 0.21728 -0.71606 0.92303 -0.30775 -0.37832 -0.25924 -0.82139 0.54856 -0.094245 0.84339 0.3414 0.045259 0.48101 -0.53177 0.3928
water 0.25012333333333336 0.19311555555555557 0.11309955555555558 -0.11427866666666657 -0.11823088888888889 0.07321144444444445 0.1443344444444444 -0.014545444444444462 0.11651800000000004 0.20536555555555552 0.5382755555555556 -0.2969590000000001 0.23429411111111112 -0.17596011111111115 0.1695477777777778 0.6235206666666666 0.11204711111111113 0.16272388888888892 -0.9265757777777777 -0.750009 0.3341234444444444 -0.2801935555555556 0.5111596666666667 -0.10241166666666665 -0.008646666666666669 -0.5203244444444444 0.13120555555555558 0.4510801111111111 0.5553777777777779 0.3239326666666666 2.4579248888888885 0.14074777777777778 0.20488499999999993 -0.37292111111111115 0.13986466666666666 -0.18607944444444452 -0.27165233333333333 0.4176063222222222 0.41927222222222216 -0.08342988888888889 -0.16883977777777776 -0.07533835555555554 0.3053384444444445 0.24393244444444448 -0.1640226666666667 -0.030922000000000005 0.5951688888888889 -0.35735888888888884 -0.25794266666666665 -0.3398415555555555
evaporates 0.59303 -0.8282 -0.091456 -0.76014 -0.16051 -0.2068 0.80039 0.43598 0.29229 0.92132 0.56756 0.35876 0.30721 -0.21212 0.31839 0.8421 0.26435 0.3383 -0.45355 -0.51969 0.74863 -0.021358 1.0556 0.10303 0.14122 0.38819 0.83643 1.1349 1.6586 1.2098 0.020104 0.40103 -0.27864 -0.58392 -0.65684 0.25538 -1.1132 0.59988 0.80734 -0.63438 0.64671 -0.093148 -0.29068 0.23693 -1.1648 0.4312 0.70639 -0.59248 0.096596 -0.4856
faster 0.10351 -0.83927 1.446 -0.51137 -0.32939 -0.074027 -0.12728 -0.47884 0.36576 0.49718 0.73292 -0.19482 -0.18578 -0.053901 0.28298 0.72926 -0.098266 0.1071 0.045138 -1.3196 0.016711 -0.47414 0.1192 0.28885 1.5105 -0.54613 0.363 -0.26343 1.1486 0.16368 3.0735 0.64135 0.17575 0.17389 0.042632 -0.66576 -0.22184 0.97532 -0.37744 -0.29594 -0.402 -0.26647 0.42851 0.075952 0.043425 -0.31751 1.2537 -0.40847 -0.16967 0.64543
resulting 0.6307 -0.22702 0.071692 -0.058292 -0.53101 1.4505 0.65019 0.23371 0.48485 0.30849 0.40591 -0.34626 -0.068243 -0.40974 0.42598 -0.14674 -0.09174 -0.3588 -0.70014 -0.508 0.27547 -0.91319 0.108 -0.43488 -0.10732 -0.54843 -0.16608 0.082471 0.99803 1.0349 3.0958 -0.37872 0.5407 -0.90639 -0.21791 0.5313 0.12629 -0.43807 0.26307 0.030102 -0.37211 -0.15852 -0.24333 0.13944 -0.2397 -0.18667 0.32935 0.12668 0.19897 -0.54055
moisture 0.41735276986518255 0.29516101158707675 0.08564871875840879 -0.16062439096460396 0.009862193600190554 -0.26379438216746653 -0.1630213639673662 -0.03177517797404032 0.13736272402385152 -0.21911438483183135 0.28118726924234794 -0.2522714522486369 0.12158171173371116 0.12901515881781586 0.16464881810226664 0.5641852383324522 -0.06805972429289509 0.1408997307173525 -0.8577069862960884 -0.521249094899933 0.23159224458264405 0.05419842230664124 0.21489605711262882 -0.10452035288770946 0.004427151897517982 -1.0850515880668612 0.09360754083505148 0.6284367825293579 0.4547484170052638 0.32490319155796443 2.717322567229261 0.16331014443124262 -0.018537684727740214 -0.20567445146342536 0.19676546497184358 -0.13683984827402051 -0.039516602808605986 0.04514900351129746 0.1136536801104375 0.07255389316038661 -0.25049570747578725 0.21409136191600348 0.3814258644137077 0.046725504675996746 -0.1554642414539142 -0.015834151015478328 0.3152114430540683 -0.14835246359456053 -0.21535871394867553 -0.19271727163059166
outside 0.67751 0.22249 -0.032198 -0.16374 0.57229 -0.93367 -0.82656 0.31582 0.02441 -0.51036 -0.26261 -1.3476 -0.10487 -0.0037803 -0.067118 0.60251 0.25636 0.25521 -0.45102 -0.54298 0.66872 0.79584 -0.41457 0.71251 -0.39771 -1.7351 0.15267 0.78654 0.15484 -0.64701 3.0757 0.11801 -0.19143 -0.75106 -0.11382 0.17232 0.16219 -0.10994 0.24001 0.67559 -0.087003 0.32909 0.1901 0.26918 0.30016 -0.14438 -0.41624 -0.70384 -0.13109 -0.75527
of 0.70853 0.57088 -0.4716 0.18048 0.54449 0.72603 0.18157 -0.52393 0.10381 -0.17566 0.078852 -0.36216 -0.11829 -0.83336 0.11917 -0.16605 0.061555 -0.012719 -0.56623 0.013616 0.22851 -0.14396 -0.067549 -0.38157 -0.23698 -1.7037 -0.86692 -0.26704 -0.2589 0.1767 3.8676 -0.1613 -0.13273 -0.68881 0.18444 0.0052464 -0.33874 -0.078956 0.24185 0.36576 -0.34727 0.28483 0.075693 -0.062178 -0.38988 0.22902 -0.21617 -0.22562 -0.093918 -0.80375
plane 2.1142 -0.10664 0.9724 0.12151 0.57094 -0.1357 -0.67595 0.11692 0.47239 -1.101 0.81084 -0.090698 -0.46271 1.3341 0.0239 -0.1267 -1.2707 0.56832 -1.6673 -0.95373 -0.33804 0.93578 -0.46047 -0.1079 0.74533 -1.9891 -0.10004 1.0233 0.85239 0.16472 2.0548 0.0040526 -0.84094 0.20915 0.64106 -0.39855 0.37578 -0.38962 -0.26623 1.0977 0.092818 0.63682 1.2017 -0.29674 -0.77097 0.092794 0.19358 0.063586 0.15693 -0.48504
freezes -0.13578 0.3287 0.032253 -0.63348 -1.0017 0.10751 0.69862 0.61702 0.17448 0.084562 -0.18362 0.35885 0.51876 0.36773 0.90361 0.95891 0.67741 -0.0288 0.47796 0.39359 0.93242 -0.82554 0.016328 -0.067404 -0.74632 -0.51192 0.81213 0.71839 1.1093 0.59271 0.95747 -0.17188 -0.12483 0.86758 -0.44087 0.49847 -0.20602 -0.79935 0.38616 -0.64034 -0.536 -0.078572 0.43843 0.32912 -0.19439 -0.95952 0.59993 0.57497 -0.67445 -0.1283
due 0.52529 0.25014 -0.29891 -0.003927 -0.68551 0.41819 -0.096241 0.42622 0.09777 -0.12757 0.77646 0.052267 -0.22046 -0.44999 0.84733 0.75829 -0.5126 -0.46022 -0.68956 -0.20814 0.26289 -0.54675 0.27619 -0.37804 0.085518 -1.0566 0.16707 0.25964 0.39742 1.4921 3.7574 0.093004 0.26742 -0.82988 0.19037 0.040906 0.52393 -0.023492 -0.32684 -0.12868 -0.81991 -0.049887 -0.16289 -0.073079 -0.34803 -0.1901 -0.080237 0.23164 0.21708 -0.35911
colder 0.076268 0.12747 0.054634 -0.91993 -0.98718 -0.8829 -0.095915 0.38663 0.22595 -0.14145 0.75235 -0.47661 1.3775 0.48423 0.30615 1.8266 0.12528 0.1683 -0.84806 -0.60262 -0.5967 -0.06398 1.2587 0.27201 0.89811 0.17063 -0.030702 1.6209 1.5435 1.6284 1.2065 0.74904 0.78793 -0.25609 0.30921 -0.56071 -0.96689 0.66546 0.047713 -0.087371 -1.0692 1.0336 0.72299 -0.43741 -0.59338 0.40774 1.1347 -0.29823 -0.93329 0.81012
air 0.62431 -0.23979 0.21777 -0.21323 -0.45305 -1.0299 -0.19855 0.13059 0.92624 -0.83971 0.8806 0.066207 0.16236 0.96066 -0.93798 0.31745 -0.63045 0.69121 -1.906 -0.87243 0.47022 0.36317 0.16189 -0.63524 -0.58182 -1.8385 -0.12382 0.83272 0.98049 0.7881 3.0484 0.54869 -0.52357 -0.31664 0.21104 0.038831 0.40715 -0.27261 -0.28817 0.7642 0.42462 0.75423 0.61254 -0.71756 -0.23384 0.36531 -0.24062 -0.1812 -0.89576 0.77999
some 0.3223676505084001 0.25001243867633033 0.07732244355908367 0.19868324959967487 0.2947888320291144 0.2619469181741935 0.010618108140925597 -0.13020972886170953 0.002838373155713503 0.30793800995771287 0.41026412902157844 0.07053714172204191 0.1519952495611633 0.259088234562504 0.1438780347250753 0.1685558187645109 0.21764087750535954 0.3563107330645798 -0.3252755689878522 -0.6837251659768357 0.4026844196217531 -0.06842873839658253 -0.0923662723030554 -0.025849273360067603 0.24989076546880176 -1.0131694394557875 -0.26537073786481524 0.04082173786444767 0.3331178432287008 0.10481586594586063 2.7751305674701072 -0.15135818349685323 -0.08116891882698983 -0.6332638284609623 -0.053141958863252015 0.17430199600889962 0.13216809592482134 0.274174858562738 0.1524210449920704 0.2782970945170969 0.14155482050927173 0.1604940066620818 0.09968364160058275 0.2422381497030802 -0.3421206954943666 0.14751259787552232 -0.137847867358968 0.012657321954608426 -0.006552378661675254 -0.11931778277764438
objects 0.94757 0.70701 0.28966 0.4289 1.5423 0.34479 0.32178 -0.93352 -0.60479 0.23683 0.55622 0.34346 0.75237 0.53471 0.37677 0.24506 0.19275 -0.095729 -0.60013 -1.3947 0.29199 -0.17129 -0.012432 -0.49723 0.61566 -0.19636 -0.88413 0.26197 0.67163 -0.89338 2.1694 -0.47674 0.21496 -1.6491 -0.32803 0.96922 0.066073 0.17908 -0.67908 0.80177 0.65083 -0.052791 1.0409 1.0337 -0.13127 -0.075002 0.21077 -0.024842 -0.093168 -1.6006
conduct 0.56446 -0.62302 -1.0547 0.20027 -0.17066 -0.052763 0.69385 0.6589 0.67286 -0.26381 -0.16076 0.28689 -0.23308 0.21412 0.007767 -0.68769 0.11707 -0.18354 -0.28012 -0.48494 0.95048 0.5994 0.28582 -0.42173 -0.27073 -1.4558 0.1566 -0.72143 0.11281 -0.17116 2.6173 0.032043 -0.98442 -1.6767 -0.28758 0.24744 0.75052 -0.10434 -0.68904 0.39385 -0.27106 -0.71348 0.57528 0.9082 0.092724 -0.81501 -0.20494 1.1686 0.092402 0.89504
electricity 0.34739 -0.51304 1.5783 0.30715 -0.95058 0.0038392 -0.2929 -0.031382 0.59172 0.73243 0.64926 -0.36617 0.82048 -0.3447 -0.038948 0.88994 0.058277 1.1489 0.41784 -1.0263 1.4297 -0.56673 -0.45148 -0.15305 0.32728 -0.68322 0.75472 0.020632 1.1913 1.3099 3.1556 0.16811 0.14939 0.05429 -0.12972 0.24198 -0.073268 0.14937 1.1438 0.90986 0.15519 0.48068 0.063123 -0.080451 -1.0193 1.0625 -1.1411 0.16931 0.21885 -0.40347
object 0.75484 0.52632 0.31252 0.046538 1.3385 0.72495 0.65268 -0.51932 -0.44174 0.36814 0.6511 0.25505 0.56532 0.66474 0.0039622 0.24662 -0.022555 0.069457 -0.43806 -1.0776 -0.44104 -0.33489 -0.36575 0.16141 0.83452 -1.1244 -0.32204 0.58859 0.53177 -0.31965 2.1169 -0.6872 -0.46852 -1.4809 -0.53857 -0.14968 0.086619 -0.26639 -0.67491 0.14816 0.91682 -0.16232 0.11633 1.0982 -0.60193 -0.44061 0.56405 0.15835 0.21799 -0.6521
conductor -0.29366 0.71465 -0.69347 -0.24684 -0.11829 0.20498 0.0054107 1.4194 -1.0382 0.62969 1.5346 0.31871 -0.24868 2.0188 -0.13063 -0.49295 -0.2008 0.84328 -0.7306 -0.64014 1.1561 0.56632 -1.0979 0.28155 0.25008 -0.52766 -0.23378 -0.55273 -0.81658 0.72408 1.2104 -0.35303 0.7228 -0.37201 -0.093784 0.067096 1.3265 1.0007 0.9555 1.2145 0.36523 0.84963 -0.58238 -0.43715 -0.14811 -0.081055 -0.40819 -0.69859 -0.98497 1.0951
metal -0.97467 0.17701 0.55721 -0.061392 0.13516 0.90557 0.11298 -0.083015 -0.19704 0.60241 0.81914 -0.039332 -0.18959 1.6839 -0.40624 0.55594 0.44263 0.16115 -0.35466 -1.6592 1.3298 -0.51587 0.045646 -0.38681 -0.72316 -0.34138 -1.1071 0.87466 0.74086 -0.47313 2.8302 -1.3763 0.85465 0.16082 -0.00087585 0.92728 0.94742 -0.37689 0.58434 -0.026297 0.31892 -0.47993 0.17084 -0.3404 1.3925 0.00089684 -0.042405 -0.75443 -0.27104 -1.4451
fork -0.16434 0.5071 -0.23591 -0.56028 -0.40312 0.44922 -0.6084 0.60822 0.64421 -0.74157 -0.63096 0.50342 1.2751 -0.17374 -1.5549 0.35464 1.1131 0.511 -0.25935 -0.46703 0.25088 -1.1062 0.58795 0.67159 0.39503 -0.83009 0.36679 1.0449 0.26416 -1.1773 1.5664 -0.73686 -0.52754 1.6313 0.32538 -0.51316 -0.94976 -0.50312 1.4773 0.11649 0.40754 -0.44637 -0.65406 0.072749 -0.34534 0.12413 1.1817 -0.020611 -0.31152 -0.75356
wood -0.61554 0.47275 -0.2801 -0.13931 0.7079 0.6627 -0.99282 -0.8956 -0.057984 -0.90014 -0.27951 0.83595 0.17036 -0.18789 -0.045566 0.5883 1.0998 0.10763 -0.1315 -1.4728 0.343 -0.22096 0.051046 -0.83689 0.034526 -0.2888 0.15191 0.72435 0.35009 -0.47017 2.2009 -1.6025 0.45588 -0.025059 0.36794 0.77846 0.52963 0.51888 0.8937 -0.21038 0.20181 -0.036968 0.17278 -0.1472 1.1477 0.7411 -0.24373 -1.3033 -0.19855 -0.39879
spoon -1.2384 -0.12614 -0.66854 -0.2161 0.68096 0.69713 0.10048 0.7268 -0.23224 -0.25837 -0.062987 0.50042 1.1909 1.24 -0.13863 -0.17798 0.57567 -0.13369 0.0070473 -1.1906 0.85081 -0.90126 1.7213 0.51695 0.026044 -0.027302 0.47359 1.1923 0.8822 -0.79721 1.328 -0.0443 -0.46048 1.05 -0.71572 0.84699 -0.71845 1.0911 1.3847 -0.64213 0.88804 0.14958 -0.63262 0.026599 -0.11423 0.50965 0.78666 -0.56007 0.13003 -0.81409
plastic -0.24208 -0.13474 0.18958 -0.10728 0.52984 0.80733 -0.079699 -1.0211 0.39969 -0.13933 0.42085 -0.12169 0.61173 1.2078 0.33896 0.67105 -0.37797 0.59041 0.10154 -1.6758 0.8012 -0.11017 0.27297 -0.80039 -1.0162 -0.59851 -0.51173 1.4978 0.78303 -1.1506 2.2357 -0.10281 -0.20451 0.40695 -0.16791 1.8744 0.98629 0.87431 1.1456 -0.13735 0.40802 0.3666 0.33608 0.51706 1.1013 -0.022072 -0.17398 -0.63442 0.053325 -1.0371
comb 0.69554 -0.68303 0.10144 -0.16374 -0.24896 -0.17934 -0.044066 0.1205 0.52328 -0.73225 0.12993 0.10803 0.57646 0.2618 -0.72522 0.46675 -0.030988 0.040297 0.032169 -0.83866 -0.2353 -0.26139 0.77744 -0.12407 -0.28166 -0.031325 -1.2472 0.78654 0.16759 -1.2228 0.53713 -0.084068 -0.32911 0.13625 -0.14491 0.92009 -0.40209 -0.20992 1.1181 -0.087936 0.37907 0.22049 -0.22733 0.38633 0.50052 -0.61539 1.0854 -0.064633 0.04737 -0.94006
rubber -1.2216 -1.3735 -0.26052 0.64787 -0.20741 0.41289 0.12977 -0.40879 0.33104 -0.15983 0.66538 -0.47251 0.32343 0.33552 -0.27952 0.5741 0.18821 0.63541 -0.24575 -1.7556 0.55598 -0.14225 0.21492 -1.23 -0.51975 -0.38616 0.13759 0.76834 0.48954 -0.75824 2.4071 -0.49735 -0.12395 1.3956 -0.0060214 0.80227 0.52459 0.31092 0.51763 -0.097327 -0.266 -0.15259 0.11437 0.018151 1.6551 -0.13647 -0.31476 -0.57809 0.10364 -1.2374
eraser -0.32915 -0.65346 0.1812 0.0067809 -0.21939 0.44761 0.89158 -1.237 -0.27348 0.99109 -0.3413 0.22045 0.5196 0.75931 -0.19785 -0.43859 0.27402 0.75312 -0.10741 -0.61526 -0.20577 -0.063103 0.096257 -1.421 0.46392 -0.26388 -1.329 0.71283 0.014072 -1.4481 -0.17464 -0.81058 -1.4351 0.86337 -0.48952 0.2273 0.14084 0.30778 1.0365 -0.58329 0.37538 0.31935 -0.67075 0.26745 -0.63847 -0.33226 1.406 0.39962 -0.31896 -0.0025712
stars 0.45522623495467324 0.33829152553795294 -0.1260690403120515 0.0946104077635309 0.34774620563790937 0.14270572439066145 -0.4157908178795239 -0.38035470211162126 -0.0860978840051768 -0.09082254049855575 0.2485228333829103 0.17219341621810438 -0.13677636128367504 0.16032021802831278 0.23977135509210995 0.1639969449436607 -0.010109764330304477 0.09161831095927049 -0.47374991716268516 -0.26895966877109984 -0.09570457039693792 -0.060733717378638676 0.2467895752412126 0.11342623684695094 0.03645138968593765 -1.0525699451932224 -0.5164461965873032 0.16549975259913666 0.002644630156443809 -0.13537823721527673 2.653984817144316 0.002893745307549687 -0.047108029856704814 -0.5529380727974107 0.03825281903976207 0.02254464515666563 -0.11996158471453118 0.058666015445506745 -0.09530005088226265 0.0062770370346201055 -0.2233985149122594 0.17605749199812434 -0.03076545244597813 -0.036758335303222464 -0.12532030699584792 0.17822494453645035 -0.007333130842195797 -0.1711872917622474 -0.09626071659708182 -0.07087175356872877
organized 0.25492 -0.22538 -0.97374 -0.2037 0.00015641 -0.25323 -0.47834 -0.3014 -0.055734 -0.58523 -0.20296 -0.58009 -0.313 0.22255 0.098111 -1.1074 0.3617 0.3121 -0.098455 -0.027228 0.79251 -0.38732 0.099861 0.63185 -0.79187 -1.0496 -0.16888 -0.88343 -0.50433 -0.0085831 2.5334 0.12988 -0.78313 -1.4829 -0.93478 0.2457 -0.31104 0.17165 -0.61998 0.63804 -0.60855 -0.53892 -0.25668 -0.031549 0.52366 -0.31836 -0.67914 -0.38751 -0.25549 0.037615
into 0.66749 -0.41321 0.065755 -0.46653 0.00027619 0.18348 -0.65269 0.093383 -0.0086802 -0.18874 -0.0063057 0.044894 -0.66801 0.48506 -0.1185 0.19968 0.1818 0.033144 -0.59108 -0.21829 0.41438 0.05674 0.42155 0.27798 -0.11322 -1.9227 0.035513 0.61928 0.62206 -0.63987 3.9115 -0.021078 -0.24685 -0.13922 -0.22545 0.59131 -0.7322 0.1162 0.4155 -0.15188 -0.14933 0.040739 -0.10415 0.23733 -0.438 0.06059 0.55073 -0.96571 -0.26875 -1.1741
patterns 0.20956 -0.14436 -1.0829 0.12216 -0.11615 0.71925 -0.056061 -1.229 0.23524 -0.11662 0.58221 -0.1359 0.49852 0.46362 -0.35071 0.21772 -0.69897 -1.3777 -0.032294 -1.6011 -0.24365 -0.63023 0.10266 -0.075937 0.49459 0.21538 -1.0212 0.33997 1.1047 -0.24514 2.8292 -0.049671 0.34324 -1.4196 -0.30471 0.21458 -0.40191 0.1552 -0.46248 0.95646 -0.57937 0.17367 0.2072 0.86228 0.62546 -0.69254 1.4972 -0.13349 0.39771 -0.12628
called 0.65388 0.34707 -0.46744 0.23541 0.042322 0.25035 -0.2481 -0.52545 -0.20402 -0.0016557 0.045543 0.40545 -0.12725 0.37255 0.091869 0.24375 0.31824 0.13457 -0.021341 -0.080923 -0.17935 -0.33615 0.20144 0.29788 -0.1721 -1.7568 -0.57082 0.29939 -0.31451 -0.15088 3.1091 -0.68082 -0.9945 -0.3575 -0.36599 -0.21774 0.39993 -0.54434 -0.1259 0.29761 -0.042689 0.35754 -0.67812 -0.16238 0.44334 0.095137 -0.47481 -0.12054 0.1405 0.3396
constellations 0.69258 0.74 0.31415 0.40553 0.081465 -0.20343 -0.020112 -0.82186 -0.79673 -0.029801 0.81206 0.82275 0.92089 1.6431 -0.45504 0.083596 -1.0239 0.59221 -1.0827 -0.20399 -0.87108 -0.37938 0.5686 0.28476 0.1379 0.53886 -1.2365 0.49009 -0.43077 -0.63333 -0.19646 0.53873 0.52106 -0.95423 0.83135 0.058143 -0.61713 -0.62764 -0.82977 0.40059 -0.83207 0.14951 1.0067 0.050495 -0.98756 0.74219 0.4581 0.35008 0.058519 -0.80597
one 0.31474 0.41662 0.1348 0.15854 0.88812 0.43317 -0.55916 0.030476 -0.14623 -0.14273 -0.17949 -0.17343 -0.49264 0.26775 0.48799 -0.29537 0.18485 0.14937 -0.75009 -0.35651 -0.23699 0.1849 0.17237 0.23611 0.14077 -1.9031 -0.65353 -0.022539 0.10383 -0.43705 3.781 -0.044077 -0.046643 0.027274 0.51883 0.13353 0.23231 0.25599 0.060888 -0.065618 -0.15556 0.30818 -0.093586 0.33296 -0.14613 0.016332 -0.24251 -0.20526 0.07009 -0.11568
constellation 2.2161 1.0876 0.71919 0.95975 0.29841 0.3822 -0.15808 -0.53759 0.085404 0.53526 1.1496 0.59724 0.42337 0.74414 -0.55042 0.75814 -0.80777 1.2095 -1.4596 0.39381 -1.0175 -0.69476 -0.12475 -0.089005 -0.61941 -0.39407 -1.1622 0.73667 -0.71049 -0.63356 -0.055026 0.39299 -0.24402 -0.57506 1.0212 -0.66606 -1.0783 -0.80061 0.021477 -0.83216 -0.5139 -0.14574 0.12429 -0.77273 -0.95734 0.40824 0.97109 0.58746 -0.30953 -0.2233
named -0.015223 0.94791 -0.39798 0.24245 0.83742 0.21892 -1.4908 -0.14772 -0.1727 -0.81461 0.53131 0.92217 -0.092407 0.23749 0.1659 -0.11248 0.060858 0.77475 -0.68559 0.59892 -0.56488 -0.08669 -0.13645 0.44672 -0.11673 -1.8485 -0.66975 -0.17688 -0.97351 -0.022379 1.9761 -1.1295 -0.33491 -0.36063 0.70858 0.13633 0.1299 0.20906 0.12725 -0.3732 -0.059748 0.38516 -0.58585 -0.73732 -0.040167 -0.17991 -0.63632 -0.90915 0.32966 0.34673
leo 0.69671 0.34439 0.40122 -0.38849 0.86297 -0.18299 -0.25352 -0.46054 -0.84039 0.13377 1.0016 1.8039 -0.91539 0.23498 0.71484 -0.23124 -0.67828 0.20745 -0.72379 0.27787 -0.19872 -0.17346 -0.45035 -0.25448 0.046544 -0.77442 -0.10306 -0.66535 -0.86291 0.090394 0.1622 0.32465 0.3319 -0.37006 -0.73847 -0.085403 0.39108 -0.012018 0.60852 0.43139 0.22207 0.98387 -0.45158 -0.52227 -0.63437 0.93679 -0.59863 -0.84374 -0.55598 0.6005
statement 0.7552 -0.046366 -0.40687 0.50012 0.81883 -0.17221 -0.15893 -0.10289 0.069876 -0.61924 -0.038256 0.057819 -0.87788 -0.50516 0.4122 0.12715 -0.52459 -0.80212 0.34226 -0.21857 0.1667 0.71681 0.26288 -0.76703 -0.044711 -1.8239 -0.17643 0.55417 -0.99917 0.1681 2.9908 -0.33517 -0.61609 -0.3381 -0.48722 -1.124 0.74523 -0.76531 -0.51381 0.35269 0.36138 0.1498 -0.15912 -0.75249 0.39425 0.044472 -1.1088 1.9118 0.2627 0.35174
why 0.6306315065316753 0.10010923409065181 -0.013268319834071255 -0.1460013439928252 0.38711199282814895 0.02535310632077502 -0.5434832428509438 -0.1702927926785422 0.45976405689936006 -0.07613804646202897 0.29340416677650255 0.1767634315435515 0.29465402668714585 0.37366551810726584 0.4716108346418162 0.34113901766005 0.11568358954489763 0.34414191234095814 -0.3399740460101047 -0.398755861553362 0.1935123596114983 0.12242995845225843 0.4160201841976313 0.06424899781939503 0.21064483616338245 -0.9806390374981462 -0.11435297293570684 0.16774078574249088 0.552548525485731 0.05187152602390514 2.70288210840363 0.23499811937526127 -0.22186513836838373 -0.13044080550373824 0.036103428450482804 0.3117185992385575 0.08272391769188633 0.4519445577554715 0.3345124130007408 0.018368959783644334 -0.12705665346072054 0.0842635940191524 0.20649278633601617 0.19753407687610133 0.1691407751313199 0.27851874149399963 -0.19971471012759204 -0.25238429127581197 -0.09351123853219606 0.1671552357496562
appears 0.6803 0.13357 0.038943 -0.26048 0.5865 0.45575 -0.26374 -0.015397 -0.0042594 0.07661 0.036253 0.39376 -0.35946 0.10029 0.47674 0.55765 -0.2729 -0.37915 -0.16241 -0.00073603 -0.37771 -0.31593 0.29869 0.21014 0.4705 -1.4959 -0.80891 0.66402 0.34828 0.29303 2.4439 -0.68185 0.12336 -0.69052 -0.18561 -0.15662 -0.052752 -0.16191 -0.76129 -0.97176 -0.034649 0.063816 -0.71275 -0.26329 0.020054 0.0043275 0.32233 -0.34399 0.16512 0.1653
different 0.50113 0.41569 -0.29695 0.10243 0.41572 0.70124 -0.20413 -0.95497 -0.63545 -0.086705 0.32744 0.29916 -0.068226 0.21065 0.052 0.10911 0.069841 0.023721 0.076539 -1.2528 -0.25439 -0.053507 1.0071 0.71453 0.21825 -0.49822 -1.0179 -0.34392 0.17144 -0.55879 4.0882 0.17536 0.1053 -1.294 0.70787 0.18151 -0.13555 0.32992 -0.85925 0.56715 -0.28607 -0.072084 0.39025 0.77524 -0.019722 0.2923 0.32779 0.16057 -0.50284 0.052809
areas 0.83401 -0.078405 -0.0697 0.29173 -0.69026 -0.29046 -0.711 -0.36263 0.70628 -0.99969 -0.027634 -1.1352 1.0044 -0.76775 -0.78103 1.0028 0.92654 0.015944 0.2596 0.098682 -0.2534 -0.019144 0.20628 0.40959 -0.22371 -0.46823 0.064054 0.32331 0.75817 0.13599 4.2121 0.060129 0.35383 -1.3483 0.27254 0.85089 -0.5542 -0.029429 -0.403 0.76431 -1.0849 0.28107 0.76916 0.16097 -0.14958 -0.038134 -0.50054 -0.085285 0.0080296 -0.43174
throughout 0.099415 0.063893 -0.65517 -0.31035 -0.54867 -0.31378 -0.75248 0.11362 0.029626 -0.23832 0.054125 -0.6937 0.019753 -0.25373 0.12972 -0.16954 -0.40668 -0.25018 -0.36012 -0.32704 0.15759 0.041711 0.39897 0.53711 0.058105 -0.8139 -0.39827 0.077777 0.2354 0.27001 3.6635 0.35466 0.81482 -1.1884 -0.29611 0.5244 -0.45087 0.13699 -0.93812 0.4332 -0.45985 0.13347 -0.069847 0.097409 -0.073005 0.55471 -0.13301 -0.47559 -1.057 -0.60987
year -0.098793 0.26983 0.35304 -0.10727 -0.015183 0.053398 -1.0824 -0.53005 0.0095416 0.070428 -0.08925 -0.62666 -0.52662 -0.56571 1.8044 0.01686 -0.44871 -0.04146 -1.1136 0.17488 0.49561 -0.38238 0.30185 -0.70675 -0.35891 -1.5164 -0.024403 -0.54107 -0.36163 0.52803 3.6553 0.71214 -0.16995 0.36368 0.3399 -0.48186 0.10936 0.61428 0.15697 -0.70716 -1.2359 -0.014258 0.095588 -0.30634 -0.49741 -0.049394 -0.16697 0.11972 -0.37511 0.098348
earth 0.5370934015816088 0.48125644222188546 0.061159422022416435 0.12376596950912877 0.2410297930213893 -0.12127074228418447 -0.15480910077452814 -0.549332894422275 -0.4613033452374939 -0.158280502416191 -0.20101944418907464 -0.060653335174240805 0.11627539233217152 0.5937190915570822 0.3304085699516762 0.13065180070493282 -0.24398049771850955 0.4894248840312506 -0.7124002971491191 -0.05922080845582667 0.10383175497971073 0.07343233772513233 0.38955385578342394 0.40273145546182637 0.40363126523098336 -0.3619178339282607 -0.3910742893311557 0.4025626330729123 0.2167791408687063 -0.2539449407822734 1.7230836323966034 0.13177855017875886 0.17855128925258035 -0.38370358601078725 -0.11117284782444589 0.16880366851879916 -0.6468116554977466 -0.20870118898486303 -0.31870324939805694 0.14584203706509966 -0.45687498298283125 0.034240844106570585 0.14970789535451498 0.2791250034264451 -0.36209117321367434 0.12916136302514972 0.6209383532998827 -0.360201085186869 -0.22972307608616344 -0.4802397760536109
revolves 0.39186 0.28429 -0.66755 0.50706 0.58514 0.86707 0.18401 -0.55094 -0.17139 0.2548 -0.72943 -0.017882 -0.42032 0.65355 0.7294 -0.37924 0.11767 0.67644 0.066076 0.78987 0.45291 0.19217 -0.31299 0.83774 0.77731 -0.27718 -0.24756 0.12293 0.45904 0.21424 1.0805 -0.47011 0.10983 -0.39957 -0.40002 0.41505 -1.0879 -0.32741 -0.65042 -0.42754 -0.61998 -0.19467 -0.63065 0.20284 -0.28099 -0.071944 1.1173 -0.11503 0.04471 0.040461
around 0.77604 0.22584 0.45044 -0.70814 0.14959 -0.76201 -0.59769 -0.37123 -0.49107 -0.81828 -0.61185 -0.96962 -0.02998 -0.26391 0.69513 0.38294 0.067117 0.42452 -1.2652 -0.54603 0.65743 0.30119 0.63752 0.40919 0.29723 -1.1203 0.1117 0.49074 0.43661 -0.40743 3.6976 0.3907 0.10636 -0.035762 -0.4579 0.19091 -0.38336 0.060834 0.20348 0.60765 -0.19867 0.21351 0.31352 0.472 -0.23803 -0.12381 0.43955 -0.97437 -0.78565 -0.8177
revolve 0.73792 0.33718 -0.37843 0.17822 -0.29295 0.42805 0.32516 -0.40947 -0.57012 0.37417 -0.93551 0.34212 -0.12779 0.55793 0.66313 0.28084 0.115 0.24603 0.73284 -0.16509 0.41985 0.14373 0.73438 0.69213 0.86888 0.62863 -0.35108 -0.079125 0.39665 -0.083978 0.67162 0.32752 0.35295 -0.59018 -0.39968 0.23634 -0.96468 -0.26624 -0.95348 0.29673 -0.74995 -0.23225 -0.08435 0.93109 -0.37544 0.025573 0.73586 0.044338 -0.70008 -0.099873
food 0.47222 -0.44545 -0.51833 -0.26818 0.44427 -0.25108 -0.99282 -0.90198 1.8729 0.039081 0.14284 0.074878 1.0543 -0.3203 1.0722 0.44323 0.0099484 0.15754 0.51399 -0.77668 0.924 0.010958 0.58815 0.23078 -0.34281 -0.88444 -0.31492 0.12661 1.1445 0.60775 3.4344 0.63561 -0.13832 0.28045 -0.16181 0.77541 -0.49888 0.4602 0.91799 0.29007 0.06884 0.59978 0.53967 -0.061752 1.2975 0.92323 -0.80945 0.34932 0.33934 0.25499
dehydrated 0.17515 -1.5365 -0.21985 -0.87344 0.10243 0.027418 -0.11236 1.159 0.42527 0.18475 0.98823 0.14795 1.0157 0.19847 0.52436 0.44083 -0.49423 0.7403 0.8754 -0.0068578 -1.0674 0.74026 1.6811 0.56277 0.70828 0.31241 0.49394 0.97654 1.3662 0.70258 0.4534 0.23713 0.82077 0.55469 0.41754 0.93331 -0.022139 1.1432 0.61908 -0.61976 -0.41058 -0.23108 0.44162 0.1118 0.70734 0.12382 -0.77316 -0.58391 0.52296 0.29819
for 0.15272 0.36181 -0.22168 0.066051 0.13029 0.37075 -0.75874 -0.44722 0.22563 0.10208 0.054225 0.13494 -0.43052 -0.2134 0.56139 -0.21445 0.077974 0.10137 -0.51306 -0.40295 0.40639 0.23309 0.20696 -0.12668 -0.50634 -1.7131 0.077183 -0.39138 -0.10594 -0.23743 3.9552 0.66596 -0.61841 -0.3268 0.37021 0.25764 0.38977 0.27121 0.043024 -0.34322 0.020339 0.2142 0.044097 0.14003 -0.20079 0.074794 -0.36076 0.43382 -0.084617 0.1214
astronauts 1.646 0.74415 1.3119 -0.17142 -0.094661 0.097567 -1.2408 0.47831 0.71766 -0.69412 0.53228 0.99955 -0.055387 2.5515 0.15766 0.44406 -0.12387 0.31266 -1.0859 -0.60601 0.4071 0.98713 0.19916 -1.31 1.1699 -0.45989 0.27606 -0.75796 0.10175 0.06584 0.80506 0.64701 -0.91778 -0.3033 0.31327 0.60335 0.89273 0.57907 0.1978 0.25697 -0.57329 -0.25859 0.68012 0.17489 0.4776 -0.0019467 0.15997 -0.34815 -1.109 0.29437
eat 0.64295 -0.42946 -0.54277 -1.0307 1.2056 -0.27174 -0.63561 -0.015065 0.37856 0.046474 -0.13102 0.605 1.6391 0.2394 1.2128 0.83178 0.73893 0.152 -0.14175 -0.88384 0.020829 -0.32545 1.8035 1.0045 0.58484 -0.62031 -0.43296 0.23562 1.3027 -0.81264 2.3158 1.103 -0.60608 1.0101 -0.22426 0.018908 -0.10931 0.3835 0.77362 -0.081927 -0.3404 -0.0015143 -0.05664 0.87359 1.4805 0.69421 -0.30966 -0.90826 0.0037277 0.8455
space 1.5873 1.0444 0.98571 0.21475 0.76442 -0.58841 -0.61534 -0.9215 0.62925 -0.48231 0.43903 0.2115 -0.22198 1.7186 0.10879 0.47857 0.49157 0.79214 -1.0202 -0.53064 0.52816 0.15984 -0.81664 -0.32418 0.31581 -0.70795 -0.26112 0.12716 0.79791 0.42946 2.929 -0.12195 -0.46265 -0.80032 -0.51309 0.50381 0.28571 0.5836 -0.0606 0.45625 0.42034 -0.076178 0.36909 0.59936 -0.89906 0.11412 0.32726 -0.42911 -0.90878 0.41363
make 0.55494 -0.048714 0.07152 -0.071538 0.4115 0.18034 -0.48436 -0.03592 -0.15302 0.43587 -0.30612 0.40199 -0.01432 0.15249 0.55544 0.44785 0.75881 -0.20428 0.25571 -1.0264 0.12219 -0.03706 0.14761 -0.087048 0.27103 -1.6697 -0.40418 -0.22598 0.7748 -0.85116 3.796 0.83318 -0.78647 -0.037684 0.22303 0.071425 0.0067017 0.57189 -0.21843 -0.5835 -0.21028 0.1189 0.30614 0.32978 0.11962 0.30695 -0.18082 0.4535 -0.086564 0.40418
less 0.50343 0.015858 0.33745 -0.63735 0.54691 0.39019 0.094177 -0.35546 -0.48083 0.7954 -0.15279 -0.59696 0.5462 -0.24196 0.57816 0.18048 0.23108 0.31356 -0.41453 -1.0321 -0.40474 -0.06759 0.34262 -0.11137 0.18348 -1.3207 -0.20151 0.45586 0.90485 0.60693 3.8475 0.24956 0.57628 -0.43086 0.32115 -0.40096 -0.14379 0.84858 -0.34062 -0.58987 -0.33593 0.26176 0.52602 0.77446 -0.22891 -0.090591 -0.341 0.168 -0.19985 0.81252
messy 0.57525 -0.57945 -1.1086 0.3541 -0.21891 0.76879 0.38779 0.53263 -0.49388 0.1359 -1.2301 -0.11998 -0.57804 0.93059 1.0457 0.014751 -0.067129 0.10187 1.1065 -0.49922 0.01621 0.44674 -0.21521 0.17326 0.33385 -0.13061 -0.39192 0.85763 1.7516 0.66093 0.91768 -0.17531 -0.24758 -0.18941 -0.51729 0.83607 -0.72791 0.32803 0.29753 -0.87049 -0.82219 -0.055522 -0.1427 1.1123 -0.26459 0.053548 0.55028 -0.2636 0.39758 0.28607
preserve 0.15117 0.70103 -0.40982 0.1851 0.55736 -0.16108 -0.5344 0.035866 0.97724 -0.019836 -0.0093634 0.24943 0.86728 -0.42602 -0.69254 0.62954 1.1758 -0.6277 0.83309 -0.071727 -0.48666 -0.15166 -0.83013 -0.83201 0.024594 -0.72384 -0.66241 -0.39181 0.82769 -0.45607 2.2933 0.054244 -0.9639 -0.62188 -0.40489 0.26175 -0.69339 -0.053166 0.11852 -0.66362 -0.21574 -0.96145 0.45852 0.30579 -0.64783 0.31193 -0.40753 -0.21631 -0.10354 -0.4257
extended 0.18321 0.68878 -0.30637 -0.12237 -0.4197 -0.05884 -0.47136 0.17741 -0.11334 -0.09133 -0.010356 0.035438 -0.25051 -0.087404 -0.070495 -0.011006 -0.82201 -0.6592 -0.14692 0.022146 0.24503 -0.20907 -0.1196 -0.36708 -0.032746 -0.62839 0.67781 0.16364 0.26686 0.17575 3.1944 0.09387 -0.013272 0.035924 0.29007 -0.20613 0.44551 0.049423 -0.72267 0.016128 -0.18759 -0.37402 -0.24471 -0.10906 -1.0257 -0.0079941 0.3571 -0.17314 -0.4723 -0.24774
flights 2.1476 0.3497 -0.017538 -0.023777 -1.3915 -0.8115 -0.74236 0.20353 1.2256 -0.36938 0.51611 0.11252 0.069425 0.80562 0.5542 0.19274 -1.1877 -0.036055 -1.4487 -0.53719 0.98442 0.21995 -0.11389 0.40544 -0.22785 -1.0025 0.95446 0.4114 0.51049 0.22106 2.4761 1.6397 -0.1854 0.44803 0.45155 -0.65233 0.75333 -0.27311 -1.212 1.5832 -0.41114 0.65248 1.5107 0.077502 -1.1392 -0.10922 -0.28908 0.71769 -0.75018 0.27353
increase 0.21093 0.10012 0.85627 -0.54524 0.22253 0.64364 0.090537 -0.73151 1.0167 0.54409 0.44708 -0.74948 0.42369 -0.93058 0.47171 0.38841 -0.066188 -0.45857 -0.079724 -0.7589 0.70502 -1.2046 -0.084494 -0.76654 -0.35268 -1.128 0.21598 -0.23045 0.35608 1.1778 3.7451 1.3071 0.32238 -0.31957 0.083539 -0.80131 -0.23285 0.10466 0.10558 -0.061841 -0.9676 0.15687 0.08461 -0.32986 -0.1638 -0.65515 -0.025958 0.87098 0.17326 0.62359
foods 0.55089 -0.52376 -1.2555 0.57146 0.59802 0.57157 -0.90692 -0.91668 1.3681 0.59794 0.37882 0.60248 1.102 -0.54842 0.11558 1.0501 -0.43233 0.11308 0.37445 -0.76404 0.79624 -0.62281 1.3798 0.3328 -1.0417 -0.47648 -0.65206 0.3763 0.90737 0.12847 1.8467 0.13645 0.066289 0.59653 0.73849 -0.83308 -0.72557 1.2424 0.54282 0.27544 0.052672 -0.027494 0.05832 0.29824 1.2639 1.4339 -1.0614 0.074307 0.15834 1.0683
nutritional 0.047587 0.7842 -0.38113 -0.36657 0.757 0.51455 0.6024 -1.0735 2.2228 0.70046 0.15043 0.086826 0.57407 -0.85484 0.20534 -0.31399 -0.7045 0.060537 1.0231 -0.40362 -0.0051539 -0.13641 1.5331 0.28403 -0.8365 -0.15717 -0.85097 -0.26506 0.50319 1.0497 1.476 0.59082 -0.30461 -0.30735 1.1145 0.34514 -0.33695 1.5679 1.3583 0.3261 0.78762 -0.51249 0.46205 1.229 0.53132 0.77522 0.14253 1.6524 0.74427 0.89589
content -0.34826 0.43954 0.25268 0.46301 -0.080105 0.33141 -0.022085 -1.3066 0.62273 1.6682 0.26044 0.48506 0.45069 -0.25339 0.34362 0.56544 0.11985 -0.098132 0.73435 -0.85473 0.92271 0.175 1.3316 0.91392 -0.13655 -0.3727 -0.095069 0.29656 0.63772 -0.006756 3.2299 -0.56239 -0.057319 -1.4156 -0.19649 0.16131 -0.068274 -0.026073 -0.77183 -0.50726 1.5729 -0.265 -0.2226 0.68299 -0.30086 0.19901 0.060389 0.63221 0.21675 0.46194
keep 0.14817 -0.22174 0.60221 -0.79489 0.33458 -0.40401 -0.62263 0.2534 0.054533 -0.032518 -0.045699 0.44085 -0.4429 0.28122 0.36606 0.78263 0.50841 -0.36081 0.386 -1.0235 0.10762 0.11578 0.2524 -0.025313 0.026976 -1.7654 0.21529 0.2338 1.0036 -0.42981 3.3928 1.0676 -0.42449 -0.082618 -0.36884 0.17497 -0.28572 0.17852 0.1916 -0.67692 -0.18997 -0.10071 0.22753 0.50452 0.2432 -0.03997 -0.089887 -0.19582 -0.096731 -0.055916
from 0.41037 0.11342 0.051524 -0.53833 -0.12913 0.22247 -0.9494 -0.18963 -0.36623 -0.067011 0.19356 -0.33044 0.11615 -0.58585 0.36106 0.12555 -0.3581 -0.023201 -1.2319 0.23383 0.71256 0.14824 0.50874 -0.12313 -0.20353 -1.82 0.22291 0.020291 -0.081743 -0.27481 3.7343 -0.01874 -0.084522 -0.30364 0.27959 0.043328 -0.24621 0.015373 0.49751 0.15108 -0.01619 0.40132 0.23067 -0.10743 -0.36625 -0.051135 0.041474 -0.36064 -0.19616 -0.81066
floating 1.0203 0.20036 0.37453 -0.27555 0.41144 -0.45525 -0.47098 -0.34396 0.17836 0.049385 -0.039344 0.69968 0.77324 1.217 -0.15615 0.21067 -0.015196 0.31598 -0.51262 -0.69166 0.59913 -0.35919 -0.16943 -0.56501 0.23595 -0.4283 0.28995 1.2406 0.89077 -0.44911 2.0279 -0.47205 0.15646 0.08936 -0.22336 0.54725 0.024675 -0.46462 0.35598 0.042913 -0.19046 -0.53897 0.61975 0.62451 -0.15032 -0.55894 0.27356 -0.74446 0.38553 -1.0322
off 0.45341 -0.71044 0.25826 -0.015757 0.14649 0.031418 -1.0812 0.31886 0.055295 -0.12677 -0.45668 0.030006 -0.81975 0.55073 0.15524 -0.018467 0.074422 -0.56719 -1.5538 -0.60283 0.16099 0.45487 0.17386 -0.24204 0.38416 -1.9726 1.013 0.80808 0.88332 -0.9352 3.5564 0.5633 0.036648 0.94056 0.045721 0.013343 -0.27625 0.14873 0.37149 -0.15766 -0.33456 0.71518 0.24446 0.087958 -0.11456 0.13934 0.33379 -0.84455 0.24269 -0.66447
plate -0.63773 0.83063 -0.26741 0.92461 0.47251 0.29511 -0.31165 0.49289 -0.10176 -0.66635 0.20884 0.33366 0.51571 0.97914 -0.15615 -0.51083 -0.11238 -0.24715 -0.68595 -1.3808 -0.0767 -1.3366 0.37579 -0.13996 0.31216 -0.66554 0.29805 1.2569 0.94895 -1.1671 2.1986 -0.039899 0.057112 0.63481 -0.58989 0.48842 0.10233 1.0525 0.44279 0.17923 0.53623 0.16626 -0.16491 0.31953 -0.61487 -0.15407 0.57715 -0.30956 0.10163 -0.66864
tools 0.19352 -0.76436 0.65418 0.32352 0.069289 -0.12009 -0.42104 -1.4142 0.28009 0.031162 -0.057973 0.37581 0.074837 -0.013689 -0.5574 0.17732 0.30121 0.32399 0.79417 -1.0911 0.74834 -0.11022 -0.47615 -0.48633 0.49906 -0.21583 -0.70494 -1.193 0.53281 -0.54838 2.9435 -0.78987 -0.53565 -0.68582 0.17138 1.5953 -0.068032 0.82787 0.099502 0.030788 0.70999 -0.56153 0.1176 1.1941 1.3686 -0.031947 1.0609 0.67209 0.11171 -0.25221
used 0.53964 -0.13732 0.26655 -0.19516 -0.27085 0.61536 -0.4052 -0.83053 -0.38883 0.065268 0.5375 0.65439 0.41593 -0.09421 -0.29161 0.40866 -0.14244 0.45586 -0.47516 -1.0329 0.33194 -0.59274 0.43132 -0.0028016 -0.21245 -1.5564 -0.5771 -0.19148 0.51854 -0.79724 3.486 -0.60214 -0.69157 -0.63335 0.63745 0.82274 0.53723 0.31433 -0.2518 0.47469 0.70936 0.22682 0.065133 0.50814 0.54933 -0.099623 0.084533 -0.12983 -0.073696 -0.42038
determine 0.80987 -0.24642 0.38295 0.42536 0.48384 0.19436 0.3229 0.74713 0.94173 -0.50334 0.63638 -0.096166 -0.1354 0.24472 0.55244 0.65469 0.17778 -0.70921 -0.031137 -0.84777 -0.087543 -0.16828 0.70688 0.12576 0.030029 -1.4612 -0.85615 -0.47255 0.01281 -0.19349 2.5188 -0.12278 -0.95229 -1.7137 0.80475 -1.1866e-05 0.46681 0.49014 0.18251 -0.4074 -0.51714 -0.40735 0.55257 0.75609 -0.46352 -0.30053 0.52022 0.90906 0.39518 0.080564
boiling -0.2808 0.32771 -0.23001 -0.91052 -0.34028 0.24016 1.0903 0.53791 -0.51175 0.39003 -0.33416 0.15223 1.0699 0.04942 0.082111 0.81496 0.61234 0.58456 -0.7465 -0.41977 0.97791 -0.28529 2.0466 -0.19804 0.74092 -0.35158 1.0316 1.1708 1.3858 0.96909 1.4491 0.083416 -0.58488 0.49518 -0.35741 0.3436 -0.86885 0.60231 1.4437 0.13193 0.35142 -0.088769 -0.24948 0.57376 0.41185 0.87077 0.76754 -0.24592 0.12332 -1.1104
point -0.1592 0.57726 0.11108 -0.004894 0.9289 -0.074486 -0.41857 0.23058 -0.60341 -0.14527 -0.23377 -0.38863 -0.35869 -0.53308 -0.33582 0.15434 0.44985 -0.94527 -1.3602 -0.43403 -0.25853 -0.17564 -0.23619 -0.081304 0.68566 -1.6123 0.32719 0.46708 0.65528 -0.4071 3.3234 -0.14992 0.11208 -0.4311 0.45804 -0.953 -0.15998 0.14427 0.027526 -0.24761 0.073804 -0.16347 0.19901 0.30233 -0.40974 -0.30176 1.0091 0.087863 0.46937 8.3356e-05
hot -0.1409222222222227 0.3449979999999985 -0.16750377777777728 0.22412557777777808 0.24411266666666878 0.5213563777777769 -0.3086068888888864 -0.16094266666666598 -0.2538117777777748 -0.26910844444444365 0.25780444444444384 0.2656809333333331 -0.10148586666666601 0.22872088888888967 -0.1085860000000003 -0.15373881777777654 -0.12674339999999895 0.10038828888888544 -0.39598222222222024 -0.779356666666667 0.19691675555555538 -0.2600893333333337 0.38216833333333317 -0.1025991711111126 0.12682466666666753 -1.0258942222222214 0.058505555555554214 0.33925800000000056 0.2933252666666694 -0.6733362222222216 2.7978822222222224 0.12752122222222453 0.06178244444444455 -0.03085888888888834 0.04179199999999729 0.36934955555555504 -0.07442977777777894 0.5883586666666668 0.270072888888889 0.3345819999999975 0.14179866666666638 0.2482479999999997 -0.02331007111111051 0.022965333333334302 -0.11312444444444593 -0.01073466666666642 0.20672111111111197 -0.43307733333333087 -0.12631804444444333 -0.44107266666666595
stopwatch -0.35057 -1.1117 0.58301 -0.15275 0.90336 -0.079751 1.0062 -0.65837 0.2372 0.37287 0.10762 -0.20633 -0.41137 1.0974 0.35712 0.19656 -0.78572 0.070881 0.13679 -0.13717 0.18146 -0.23892 0.052051 -0.0034549 1.1529 -0.15786 -0.30336 0.17578 0.55589 -0.81261 -0.4634 0.5174 -0.37354 0.40124 -0.33639 0.52514 0.57784 0.21951 -0.26408 0.83978 -0.057627 0.40929 -1.1717 0.6934 0.3821 -0.47933 1.6179 0.3023 0.088926 -0.1318
thermometer 0.021121666666665134 0.35405499999999507 -0.09116666666666506 -0.2974253333333324 -0.04335499999999299 0.7320991666666639 -0.37761333333332514 -0.4629549999999978 -0.470456666666657 -0.09651166666666401 0.34106166666666465 0.24408599999999922 -0.35971699999999784 -0.12469666666666417 -0.17714000000000088 -0.034729316666662687 -0.17556899999999662 0.5417233333333221 -0.3484683333333269 -0.5145700000000012 0.3569728333333328 0.19361999999999868 0.34049349999999934 -0.10785066666667147 -0.07631999999999721 -1.2535883333333306 0.05849833333332902 -0.05283999999999795 -0.24123899999999107 -0.2816333333333309 3.051783333333335 0.00670333333334087 0.083141666666667 -0.3564933333333315 0.5654299999999912 0.22191333333333163 -0.10647166666667046 0.4304550000000001 0.3747933333333336 0.3816999999999919 -0.03783200000000101 0.15971999999999892 0.09704973333333528 -0.18017999999999681 -0.06841666666667141 0.10129000000000082 0.03901666666666931 -0.5225399999999919 -0.310111666666663 -0.3090599999999977
balance -0.22593666666666673 0.56465 0.09643666666666664 -0.6111076666666666 -0.20054999999999998 0.7649683333333335 -0.2419066666666666 -0.45223 -0.6101633333333333 -0.05468333333333332 0.4119233333333333 0.17879200000000003 -0.26931400000000005 0.1633066666666667 -0.25496 -0.10754363333333335 -0.38088700000000003 0.9826866666666667 -0.4463566666666667 -0.51096 0.36836566666666665 -0.061980000000000035 0.193077 -0.13483533333333333 -0.05143 -1.1294766666666665 0.22565666666666664 0.12632999999999997 -0.49531699999999995 -0.09818666666666664 2.2572666666666668 -0.30021333333333333 0.029853333333333336 -0.1905466666666667 0.8006599999999999 0.10675666666666667 0.14306666666666668 0.5366 0.6291766666666667 0.41219999999999996 -0.006621000000000016 -0.04941 -0.05758053333333333 -0.11519000000000001 -0.39064333333333334 0.06588 0.38981333333333335 -0.41298 -0.36994333333333335 -0.23715
graduated -1.481 1.0343 -0.71882 -1.4073 -0.10019 0.011975 -0.98403 -0.14229 -0.90899 -0.47342 0.61429 0.066266 0.077848 -0.61698 -0.34178 -0.36875 -0.79513 1.3103 -0.63991 1.0368 0.70882 0.68114 0.16561 -0.18911 -0.24598 -1.549 0.27008 -0.7366 -1.1116 -0.21495 1.2203 -0.37251 -0.20693 -1.096 0.83358 -0.35296 -0.16902 1.1368 1.2814 0.44109 -0.49584 -0.31522 0.0084884 -0.2346 -0.83817 -0.34057 0.54253 -0.76976 -0.66335 0.66118
cylinder 0.53501 0.51619 1.2869 -0.44228 -0.6153 1.5837 0.77163 -0.74072 -0.59075 0.44771 0.35128 0.16073 -0.43567 1.5196 -0.32378 0.0080341 -0.37728 1.537 -0.44858 -2.0515 0.050697 -1.3163 -0.074289 -0.13453 0.1929 -0.46173 0.51555 1.3476 -0.38719 0.38547 1.7052 -0.84175 0.16006 1.0468 1.2382 0.33616 0.95423 0.14869 0.48572 0.44431 0.54502 -0.20186 -0.43291 0.1342 -0.58757 0.40151 0.93869 0.16292 -0.1962 -0.99166
